/*!
 * The following copyright notice may not be removed under any circumstances.
 * 
 * Copyright:
 * Thiet ke boi Michael Dinh Kien - "In God We Trust - Free for everyone" Email:
 * fontchudep@gmail.com; www.fontchudep.com; www.fontchudep.vn
 * 
 * Trademark:
 * Phát trin bi Thien Minh Co., Ltd - http://www.thienminh.vn
 */
Cufon.registerFont({"w":1570,"face":{"font-family":"Museo","font-weight":400,"font-stretch":"normal","units-per-em":"2048","panose-1":"2 4 6 3 5 5 6 2 2 4","ascent":"1638","descent":"-410","x-height":"29","bbox":"-94 -2266.38 2028 510.495","underline-thickness":"109","underline-position":"-143","unicode-range":"U+0020-U+2026"},"glyphs":{" ":{"w":534},"!":{"d":"559,-1448r-50,1090r-153,0r-41,-904v-7,-114,-12,-142,-80,-186r324,0xm440,-236v69,0,131,65,131,134v0,73,-61,135,-133,135v-75,0,-135,-60,-135,-135v0,-74,62,-134,137,-134","w":872},"\"":{"d":"929,-1423r-35,571r-147,0r-33,-571r215,0xm593,-1423r-33,571r-147,0r-35,-571r215,0","w":1310},"#":{"d":"1283,-999r-18,125r-307,0r-49,335r305,0r-21,125r-303,0r-65,414r-135,0r67,-414r-299,0r-63,414r-133,0r63,-414r-299,0r20,-125r297,0r54,-335r-299,0r18,-125r299,0r68,-422r133,0r-66,422r295,0r68,-422r131,0r-64,422r303,0xm827,-874r-297,0r-51,335r297,0","w":1310},"$":{"d":"114,-1075v0,-213,186,-326,403,-344r0,-172r117,0r0,172v96,4,188,20,275,49r0,227v-71,-71,-163,-111,-275,-121r0,398v8,5,25,13,51,26v151,76,162,70,256,158v80,76,119,167,119,272v0,245,-189,363,-426,402r0,192r-117,0r0,-190v-145,0,-273,-9,-385,-27r0,-254v115,90,243,136,385,137r0,-536v-109,-47,-188,-86,-239,-119v-109,-72,-164,-162,-164,-270xm517,-1264v-114,10,-199,62,-200,164v0,37,14,69,43,96v29,27,81,59,157,95r0,-355xm855,-395v0,-127,-110,-181,-221,-236r0,467v147,-43,221,-120,221,-231","w":1138},"%":{"d":"384,-1438v170,0,301,157,301,332v0,178,-134,336,-307,336v-178,0,-307,-147,-307,-330v0,-187,132,-338,313,-338xm1165,-1423r-699,1423r-129,0r701,-1423r127,0xm1140,-651v171,0,301,156,301,332v0,178,-134,335,-307,335v-178,0,-307,-147,-307,-329v0,-186,132,-338,313,-338xm520,-1104v0,-147,-48,-221,-144,-221v-93,0,-139,74,-139,223v0,143,47,215,141,215v95,0,142,-72,142,-217xm1275,-317v0,-148,-48,-222,-143,-222v-93,0,-139,75,-139,224v0,143,47,215,141,215v94,0,141,-72,141,-217","w":1511},"&":{"d":"628,-1452v173,0,311,121,311,291v0,59,-13,110,-38,153v-25,43,-76,99,-152,168v262,258,464,443,605,556v141,113,290,207,447,284v-211,5,-319,25,-457,-42v-64,-31,-144,-92,-241,-181v-111,163,-209,247,-453,252v-270,5,-489,-159,-487,-416v0,-85,21,-162,65,-231v44,-69,121,-147,232,-234v-65,-68,-111,-124,-136,-168v-125,-216,76,-432,304,-432xm614,-1319v-78,0,-143,50,-142,125v0,60,51,136,154,227v93,-71,139,-143,139,-217v0,-80,-69,-135,-151,-135xm392,-399v0,165,129,278,297,278v129,0,237,-60,326,-180v-180,-160,-322,-299,-426,-418v-131,96,-197,203,-197,320","w":1744},"'":{"d":"544,-1423r-33,571r-147,0r-35,-571r215,0","w":872},"(":{"d":"579,326r-166,0v-195,-294,-293,-587,-293,-879v0,-207,45,-406,135,-596v30,-64,83,-155,158,-274r166,0v-181,281,-271,573,-271,876v0,333,90,624,271,873","w":659},")":{"d":"249,-1423v179,260,295,515,295,870v0,292,-98,585,-295,879r-172,0v181,-249,272,-540,272,-873v0,-305,-91,-597,-272,-876r172,0","w":665},"*":{"d":"1019,-1098v-96,-11,-188,17,-274,45r125,138v23,20,50,36,82,49r-172,125v-12,-87,-70,-179,-125,-248v-54,69,-110,163,-121,248r-168,-125v113,-31,140,-98,209,-187v-84,-27,-182,-58,-287,-30r70,-201v53,59,147,102,245,129v4,-111,-10,-186,-59,-268r215,0v-42,65,-55,158,-51,268v114,-38,188,-52,244,-137","w":1310},"+":{"d":"1128,-645r-399,0r0,407r-148,0r0,-407r-399,0r0,-148r399,0r0,-409r148,0r0,409r399,0r0,148","w":1310},",":{"d":"260,-250v80,0,135,67,135,150v0,97,-47,194,-146,286v-55,51,-51,38,-147,31v107,-97,160,-164,160,-201v0,-9,-15,-18,-45,-26v-57,-15,-86,-54,-86,-115v0,-67,60,-125,129,-125","w":526},"-":{"d":"735,-651r-117,155v-19,26,-50,39,-92,39v-154,3,-343,-14,-455,27r123,-154v19,-25,51,-37,94,-37v149,-2,348,11,447,-30","w":804},"\u2010":{"d":"735,-651r-117,155v-19,26,-50,39,-92,39v-154,3,-343,-14,-455,27r123,-154v19,-25,51,-37,94,-37v149,-2,348,11,447,-30","w":804},".":{"d":"266,-250v69,0,131,65,131,133v0,74,-60,135,-133,135v-75,0,-135,-60,-135,-135v0,-72,64,-133,137,-133","w":526},"\/":{"d":"804,-1423r-676,1720r-162,0r682,-1720r156,0","w":880},"0":{"d":"663,-1026v300,0,557,228,557,520v0,300,-279,535,-590,535v-306,0,-567,-224,-567,-523v0,-312,275,-532,600,-532xm651,-115v212,0,356,-153,356,-366v0,-229,-154,-402,-379,-402v-202,0,-352,159,-352,363v0,219,161,405,375,405","w":1284},"1":{"d":"411,-281v1,157,25,223,106,281r-442,0v110,-77,129,-98,129,-281r0,-536r-176,0v191,-83,319,-169,383,-258r0,794","w":581},"2":{"d":"453,-1040v181,0,337,99,338,266v0,78,-44,167,-129,270v-37,45,-194,208,-325,338v171,31,376,37,497,-51r0,217r-862,0v25,-23,150,-156,375,-399v101,-110,164,-184,189,-221v25,-37,38,-75,38,-113v1,-100,-81,-158,-186,-158v-90,0,-186,29,-287,86r125,-186v65,-33,141,-49,227,-49","w":962},"3":{"d":"541,-412v208,38,350,145,350,357v0,185,-98,326,-293,424v-175,88,-397,124,-653,112r78,-129v201,0,359,-34,476,-104v117,-70,175,-165,175,-285v-1,-218,-232,-324,-475,-278r0,-144v209,18,418,-63,418,-239v0,-121,-104,-185,-236,-185v-109,0,-221,27,-334,80r109,-176v81,-31,165,-47,254,-47v215,0,405,109,405,305v0,163,-114,267,-274,309","w":995},"4":{"d":"1237,-229r-129,231r-226,0v2,113,0,231,-36,301v-26,50,-77,120,-156,207r0,-508r-676,0r582,-1028r286,0r0,881v138,0,256,-28,355,-84xm698,-926r-424,760v91,21,268,27,420,25","w":1236},"5":{"d":"339,-469v325,-106,617,102,617,401v0,227,-156,390,-334,467v-143,62,-328,100,-559,109r86,-146v95,0,178,-9,248,-28v230,-63,344,-188,344,-373v0,-191,-135,-305,-330,-305v-77,0,-167,18,-272,55r0,-708r710,0r0,241v-62,-74,-100,-96,-233,-96v-98,0,-190,6,-277,18r0,365","w":1028},"6":{"d":"743,-950v252,0,450,209,450,463v0,290,-261,516,-559,516v-321,0,-573,-271,-565,-598v8,-342,206,-581,451,-723v139,-81,306,-139,503,-176r-84,133v-349,77,-640,358,-647,753v-4,243,147,467,373,467v186,0,315,-144,315,-334v0,-197,-128,-352,-319,-352v-93,0,-178,23,-256,68r84,-131v77,-57,161,-86,254,-86","w":1251},"7":{"d":"1061,-997r-504,1087v-89,217,-232,357,-430,420r635,-1346v-275,-23,-541,-32,-719,88r139,-249r879,0","w":1103},"8":{"d":"862,-741v188,62,348,149,348,362v0,120,-57,215,-164,294v-196,145,-629,151,-828,7v-101,-73,-155,-164,-155,-280v0,-204,159,-277,330,-361v-178,-65,-267,-172,-267,-319v1,-226,248,-365,498,-365v238,0,494,134,494,354v0,141,-85,243,-256,308xm612,-1274v-144,0,-281,72,-281,199v0,65,44,122,131,174v19,11,161,73,254,110v134,-57,201,-138,201,-243v-1,-156,-137,-240,-305,-240xm638,-111v178,0,353,-74,353,-229v0,-60,-35,-114,-103,-160v-68,-46,-191,-99,-368,-159v-144,65,-254,118,-254,278v0,177,177,270,372,270","w":1275},"9":{"d":"610,-1026v323,0,571,263,565,590v-6,324,-202,592,-432,717v-156,85,-334,148,-536,186r92,-129v325,-78,655,-372,655,-758v0,-249,-139,-467,-371,-467v-189,0,-315,145,-315,338v0,206,119,355,317,354v77,0,165,-26,265,-77r-125,174v-74,31,-146,47,-217,47v-249,0,-451,-215,-451,-467v0,-284,261,-508,553,-508","w":1245},":":{"d":"266,-963v69,0,131,65,131,134v0,73,-61,135,-133,135v-74,0,-135,-61,-135,-135v0,-73,63,-134,137,-134xm266,-250v69,0,131,65,131,133v0,74,-60,135,-133,135v-75,0,-135,-60,-135,-135v0,-72,64,-133,137,-133","w":526},";":{"d":"258,-963v69,0,131,65,131,134v0,74,-61,135,-135,135v-73,0,-134,-61,-134,-135v0,-74,64,-134,138,-134xm260,-250v80,0,135,67,135,150v0,97,-47,194,-146,286v-55,51,-51,38,-147,31v107,-97,160,-164,160,-201v0,-9,-15,-18,-45,-26v-57,-15,-86,-54,-86,-115v0,-67,60,-125,129,-125","w":526},"<":{"d":"997,-193r-926,-446r0,-166r926,-446r0,194r-717,336r717,336r0,192","w":1067},"=":{"d":"1128,-793r-946,0r0,-147r946,0r0,147xm1128,-483r-946,0r0,-148r946,0r0,148","w":1310},">":{"d":"997,-637r-926,447r0,-195r717,-336r-717,-336r0,-194r926,446r0,168","w":1067},"?":{"d":"266,-1413v305,-131,696,30,696,344v0,69,-16,132,-49,188v-33,56,-91,123,-176,199v-96,86,-154,141,-172,166v-31,42,-34,112,-16,176r-168,18v-38,-202,45,-285,170,-393v129,-112,194,-216,194,-311v0,-160,-146,-281,-311,-281v-70,0,-167,32,-291,95xm483,-233v69,0,131,64,131,133v0,71,-64,135,-135,135v-72,0,-133,-62,-133,-135v0,-73,63,-133,137,-133","w":1089},"@":{"d":"1001,-1452v370,0,620,188,620,543v0,270,-200,583,-446,583v-89,0,-168,-68,-164,-155v6,-154,57,-296,82,-437v-35,-34,-88,-51,-158,-51v-141,-2,-235,132,-235,281v0,167,133,221,284,174r-88,137v-209,66,-366,-95,-360,-293v8,-245,149,-426,405,-432v110,-3,228,70,314,15r28,-15r-102,479v-14,73,-32,154,47,154v64,0,121,-44,171,-132v50,-88,75,-189,75,-302v1,-273,-202,-422,-488,-422v-372,0,-637,261,-637,633v0,346,236,575,582,575v164,0,317,-48,459,-143r-31,141v-134,89,-304,133,-510,133v-373,0,-647,-302,-647,-682v0,-457,338,-784,799,-784","w":1820},"A":{"d":"1566,0r-448,0v106,-73,91,-76,41,-207r-127,-330r-547,0r-123,330v-37,102,-43,157,53,207r-397,0v124,-84,133,-121,201,-291r381,-950v34,-90,41,-140,-41,-182r344,0r454,1132v64,153,93,216,209,291xm976,-676r-219,-565r-221,565r440,0"},"B":{"d":"851,-829v201,45,360,178,355,380v-4,186,-131,324,-275,391v-178,83,-552,51,-825,58v47,-25,76,-65,88,-121v5,-25,8,-76,8,-155r0,-871v0,-79,-3,-131,-8,-156v-12,-55,-41,-95,-88,-120r487,-2v135,0,235,17,299,51v118,61,177,150,177,266v0,140,-98,230,-218,279xm413,-850v209,24,424,-43,424,-225v0,-137,-126,-216,-274,-213v-37,0,-87,5,-150,14r0,424xm413,-172v255,56,555,6,551,-248v-4,-206,-158,-298,-387,-295v-55,0,-109,3,-164,10r0,533","w":1296},"C":{"d":"325,-745v0,319,238,604,547,604v137,0,295,-47,473,-140r-109,252v-105,43,-217,64,-336,64v-471,0,-819,-287,-819,-744v0,-426,336,-749,766,-749v108,0,238,18,389,55r0,248v-138,-79,-269,-119,-393,-119v-303,0,-518,224,-518,529","w":1372},"D":{"d":"636,-1427v455,-11,805,278,803,700v-1,305,-190,550,-413,655v-147,70,-619,74,-920,72v98,-86,96,-111,96,-287r0,-860v0,-79,-3,-131,-8,-156v-12,-55,-41,-95,-88,-120xm579,-162v396,0,620,-202,623,-543v3,-341,-223,-577,-582,-577v-59,0,-126,8,-201,25r0,1081v51,9,104,14,160,14","w":1521},"E":{"d":"907,-1184v-78,-68,-122,-86,-264,-86v-91,0,-165,5,-224,15r0,403r289,0v29,0,53,-5,74,-14r0,229v-50,-78,-230,-56,-363,-59r0,514v261,43,527,28,688,-101r-100,283r-901,0v89,-58,96,-112,96,-279r0,-868v0,-78,-3,-130,-8,-156v-12,-55,-41,-95,-88,-120r719,0v31,0,59,-4,82,-13r0,252","w":1126},"F":{"d":"907,-1186v-77,-66,-121,-84,-262,-84v-89,0,-164,5,-226,15r0,403r289,0v29,0,53,-5,74,-14r0,229v-47,-78,-231,-56,-363,-59r0,420v0,79,3,130,9,155v12,56,41,96,88,121r-410,0v47,-25,76,-65,88,-121v5,-25,8,-76,8,-155r0,-871v0,-79,-3,-131,-8,-156v-12,-55,-41,-95,-88,-120r719,0v31,0,59,-4,82,-13r0,250","w":960},"G":{"d":"327,-731v0,332,294,610,628,610v123,0,222,-14,297,-41r0,-287v0,-79,-3,-130,-8,-155v-12,-56,-41,-96,-88,-121r326,0v-8,26,-12,68,-12,127r0,459v0,49,4,85,12,110v-163,29,-379,64,-518,64v-502,0,-883,-288,-883,-737v0,-439,399,-756,893,-756v105,0,219,12,342,37r0,247v-94,-86,-222,-129,-383,-129v-341,0,-606,238,-606,572","w":1624},"H":{"d":"1511,-1423v-88,60,-96,110,-96,276r0,871v0,77,3,129,8,155v12,55,41,95,88,121r-410,0v88,-59,97,-111,97,-276r0,-410r-779,0r0,410v0,79,3,130,9,155v12,56,41,96,88,121r-410,0v47,-25,76,-65,88,-121v5,-25,8,-76,8,-155r0,-871v0,-79,-3,-131,-8,-156v-12,-55,-41,-95,-88,-120r410,0v-47,25,-78,64,-88,120v-18,100,-7,320,-9,451r779,0r0,-295v0,-78,-3,-130,-9,-156v-12,-54,-41,-94,-88,-120r410,0","w":1619},"I":{"d":"516,0r-410,0v47,-25,76,-65,88,-121v5,-25,8,-76,8,-155r0,-871v0,-79,-3,-131,-8,-156v-12,-55,-41,-95,-88,-120r410,0v-47,25,-76,65,-88,120v-6,25,-9,77,-9,156r0,871v0,79,3,130,9,155v12,56,41,96,88,121","w":622},"J":{"d":"503,-1423v-47,25,-76,65,-89,120v-5,25,-8,77,-8,156r0,1147v0,130,-5,208,-12,236v-33,128,-280,256,-469,262v93,-57,161,-120,205,-189v39,-61,59,-164,59,-309r0,-1147v0,-78,-3,-130,-8,-156v-12,-54,-41,-94,-88,-120r410,0","w":593},"K":{"d":"1384,0v-61,7,-130,10,-207,10v-85,0,-151,-23,-201,-66v-97,-82,-386,-515,-520,-685r299,-398v71,-94,107,-158,107,-192v0,-34,-22,-65,-66,-92r389,0r-497,639r305,409v129,168,181,231,391,375xm516,0r-410,0v47,-25,76,-65,88,-121v5,-25,8,-76,8,-155r0,-871v0,-79,-3,-131,-8,-156v-12,-55,-41,-95,-88,-120r410,0v-47,25,-76,65,-88,120v-6,25,-9,77,-9,156r0,871v0,79,3,130,9,155v12,56,41,96,88,121","w":1345},"L":{"d":"1103,-287r-114,287r-883,0v47,-25,76,-65,88,-121v5,-25,8,-76,8,-155r0,-871v0,-79,-3,-131,-8,-156v-12,-55,-41,-95,-88,-120r410,0v-47,25,-76,65,-88,120v-6,25,-9,77,-9,156r0,971v169,23,351,39,493,-6v57,-19,120,-54,191,-105","w":1130},"M":{"d":"1999,0r-418,0v95,-43,97,-146,80,-285r-115,-925r-485,1239v-103,-90,-124,-108,-179,-238r-423,-1001r-127,954v-22,138,-17,183,75,256r-354,0v60,-57,99,-152,117,-285r125,-909v8,-60,12,-97,12,-111v0,-43,-25,-83,-76,-118r379,0v0,19,7,44,21,75r415,977r350,-897v27,-69,41,-121,41,-155r375,0v-65,28,-74,119,-61,213r133,954v24,149,26,183,115,256","w":2054},"N":{"d":"1259,-1169v-2,-149,-24,-190,-114,-254r387,0v-94,64,-115,101,-115,254r0,1239v-105,-35,-204,-111,-297,-228r-758,-960r0,864v2,148,24,193,113,254r-385,0v94,-64,115,-101,115,-254r0,-915v-2,-148,-24,-193,-113,-254r315,0v3,8,18,37,52,80r800,1019r0,-845","w":1613},"O":{"d":"898,-1460v433,6,758,293,770,739v12,420,-373,756,-799,756v-419,0,-788,-329,-788,-740v0,-430,376,-761,817,-755xm878,-121v324,0,544,-239,544,-567v0,-330,-230,-617,-555,-617v-316,0,-542,242,-542,564v0,316,219,620,553,620","w":1753},"P":{"d":"419,-254v2,146,23,196,113,254r-426,0v47,-25,76,-65,88,-121v5,-25,8,-76,8,-155r0,-871v0,-79,-3,-131,-8,-156v-12,-55,-41,-95,-88,-120r516,-2v218,-1,360,61,444,190v215,330,-190,706,-573,565v219,-21,385,-135,391,-336v7,-227,-233,-309,-465,-251r0,1003","w":1181},"Q":{"d":"890,-1458v523,0,942,490,718,1016v-72,168,-160,272,-325,358v275,248,475,368,709,363v-83,75,-174,112,-273,112v-149,0,-379,-126,-692,-377v-73,14,-133,21,-180,21v-417,0,-766,-331,-766,-744v0,-426,373,-749,809,-749xm882,-119v316,0,540,-246,540,-567v0,-322,-229,-617,-555,-617v-309,0,-542,236,-542,553v0,327,216,631,557,631","w":1751},"R":{"d":"1075,-1067v0,191,-177,332,-351,371v161,217,290,375,386,476v96,101,188,175,274,220v-107,8,-173,12,-199,12v-61,0,-115,-14,-159,-43v-44,-29,-102,-86,-175,-172v-137,-164,-263,-343,-378,-538v240,-41,360,-145,360,-310v0,-144,-114,-242,-262,-239v-43,0,-93,5,-152,16r0,998v0,79,3,130,9,155v12,56,41,96,88,121r-410,0v47,-25,76,-65,88,-121v5,-25,8,-76,8,-155r0,-871v0,-79,-3,-131,-8,-156v-12,-55,-41,-95,-88,-120r313,0r193,-4v270,-8,463,134,463,360","w":1296},"S":{"d":"638,-1307v-149,0,-282,70,-284,203v0,53,22,99,64,136v42,37,127,84,255,143v153,69,258,128,317,174v173,134,136,380,-16,528v-187,182,-551,199,-833,92r-66,-268v143,115,301,172,473,172v158,0,324,-81,324,-221v0,-60,-24,-111,-72,-154v-41,-35,-132,-85,-275,-150v-143,-65,-242,-123,-298,-173v-76,-68,-113,-152,-113,-250v0,-258,251,-383,539,-383v107,0,217,16,329,47r0,246v-97,-95,-211,-142,-344,-142","w":1187},"T":{"d":"658,-254v2,152,23,188,114,254r-428,0v47,-25,76,-65,88,-121v6,-26,9,-78,9,-155r0,-979v-70,-8,-258,-12,-322,6v-42,12,-86,34,-133,69r80,-258v29,10,65,15,110,15r897,-4v7,-2,22,-6,43,-11r-69,258v-42,-69,-86,-86,-203,-82r-186,7r0,1001","w":1101},"U":{"d":"1433,-1423v-87,60,-96,110,-96,276r0,871v0,77,2,129,8,155v12,55,42,95,88,121r-305,0r0,-150v-103,123,-245,185,-428,185v-240,1,-431,-125,-483,-311v-14,-49,-21,-130,-21,-242r0,-629v0,-79,-3,-131,-8,-156v-12,-55,-41,-95,-88,-120r410,0v-88,60,-97,110,-97,276r0,629v-7,256,128,395,351,395v137,0,243,-50,315,-153v28,-41,41,-97,41,-168r0,-703v0,-78,-2,-130,-8,-156v-12,-54,-42,-94,-88,-120r409,0","w":1540},"V":{"d":"1327,-1423r-577,1486v-189,-132,-199,-113,-279,-329r-293,-791v-53,-145,-87,-233,-103,-264v-16,-31,-44,-65,-85,-102r315,0v-8,61,8,92,47,200r355,967r305,-801v43,-116,65,-197,65,-243v0,-61,-26,-102,-77,-123r327,0","w":1341},"W":{"d":"2028,-1423r-457,1484v-40,-28,-196,-129,-209,-160v-21,-27,-43,-81,-69,-163r-244,-768r-336,1091v-65,-46,-181,-117,-215,-167v-19,-27,-41,-79,-66,-156r-272,-848v-60,-176,-67,-223,-172,-313r315,0v-11,53,-2,63,19,129r336,1044r268,-860v45,-158,71,-229,-49,-313r299,0v-15,71,-4,102,24,190r314,977r262,-831v29,-92,43,-155,43,-189v0,-71,-39,-120,-117,-147r326,0","w":2052},"X":{"d":"1466,0r-246,12v-41,0,-68,-5,-84,-16v-16,-11,-41,-42,-75,-94r-346,-520r-316,419v-66,89,-69,146,31,199r-420,0v103,-101,155,-179,238,-287r362,-471r-293,-420v-96,-130,-119,-184,-231,-245r256,-11v29,0,49,4,60,12v11,8,33,40,69,91r289,411r231,-311v62,-87,87,-161,-37,-192r397,0r-491,641r360,536v101,142,112,181,246,246","w":1478},"Y":{"d":"768,-254v2,155,22,173,109,254r-418,0v45,-31,76,-72,84,-123v18,-119,5,-353,8,-500r-372,-600v-74,-112,-88,-134,-193,-200r246,-9v33,0,56,4,68,14v12,10,33,40,63,89r325,532r273,-413v62,-90,57,-159,-37,-213r375,0r-531,800r0,369","w":1306},"Z":{"d":"1306,-274r-112,274r-1143,0r797,-1247v-140,-21,-397,-38,-535,-8v-45,10,-102,38,-172,79r105,-247r956,0r-791,1241v380,27,629,58,895,-92","w":1339},"[":{"d":"194,-1188v1,-147,-9,-163,-82,-235r483,0r0,116r-217,0r0,1510r217,0r0,123r-483,0v73,-66,82,-99,82,-248r0,-1266","w":681},"\\":{"d":"858,297r-160,0r-678,-1720r156,0","w":765},"]":{"d":"487,78v0,145,5,182,72,248r-473,0r0,-123r217,0r0,-1510r-217,0r0,-116r473,0v-63,72,-71,97,-72,235r0,1266","w":671},"^":{"d":"1027,-758r-209,0r-286,-516r-285,516r-209,0r367,-672r256,0","w":1067},"_":{"d":"1067,297r-1067,0r0,-154r1067,0r0,154","w":1067},"`":{"d":"688,-1120r-535,-236r131,-135","w":1067},"a":{"d":"720,-743v-2,-93,-100,-138,-207,-138v-76,0,-174,29,-295,86r144,-217v47,-9,97,-14,149,-14v183,0,305,48,365,145v71,114,20,461,49,648v11,70,79,106,178,106r-94,141v-209,-19,-285,-56,-285,-276r0,-279v-49,23,-141,51,-276,82v-104,25,-156,80,-156,166v1,178,223,208,391,148r-127,161v-38,9,-77,13,-118,13v-212,0,-366,-139,-367,-324v0,-99,40,-172,121,-217v55,-30,150,-58,285,-84v95,-18,160,-38,193,-58v33,-20,50,-50,50,-89","w":1116},"b":{"d":"513,-999v333,-116,607,156,607,471v0,340,-264,557,-617,557v-171,0,-309,-13,-416,-39v53,-41,66,-59,66,-152r0,-1048v-3,-146,-2,-145,-82,-213v102,-3,229,15,276,-41r0,1314v70,17,132,25,185,25v220,3,366,-140,366,-360v0,-208,-123,-382,-319,-381v-56,0,-117,16,-184,49","w":1204},"c":{"d":"302,-524v0,236,201,407,443,407v110,0,220,-35,329,-104r-127,211v-65,26,-157,39,-276,39v-322,0,-590,-201,-590,-508v0,-315,272,-547,616,-547v79,0,158,9,236,27r0,223v-71,-70,-161,-105,-270,-105v-215,0,-361,143,-361,357","w":1067},"d":{"d":"1121,-213v3,145,3,145,82,213r-276,0r0,-492v1,-152,-4,-193,-62,-274v-58,-82,-143,-119,-245,-119v-189,0,-318,158,-318,353v0,223,157,411,375,411v64,0,127,-20,190,-59r-124,194v-36,10,-72,15,-109,15v-337,5,-553,-223,-553,-525v0,-286,225,-530,506,-530v124,0,237,42,340,127r0,-311v-3,-145,-2,-148,-82,-213v101,-2,231,15,276,-41r0,1251","w":1277},"e":{"d":"314,-520v10,247,174,403,433,403v135,0,255,-37,362,-112r-117,206v-89,35,-188,52,-299,52v-337,0,-612,-207,-612,-529v0,-289,218,-526,537,-526v286,0,509,204,491,506r-795,0xm882,-655v-30,-160,-122,-240,-275,-240v-155,0,-250,80,-284,240r559,0","w":1191},"f":{"d":"178,-1102v-2,-293,291,-419,612,-356r-154,168v-35,-23,-72,-35,-110,-35v-111,0,-159,51,-154,190r0,138v100,-5,214,13,295,-13r0,191v-46,-54,-195,-30,-295,-35r0,567v2,169,14,230,92,287r-368,0v80,-65,82,-69,82,-213r0,-641r-109,0r109,-143r0,-105","w":681},"g":{"d":"599,-1026v184,6,461,36,662,0r-62,139v-9,18,-30,27,-61,27v-39,0,-119,-10,-238,-31v107,75,160,165,160,268v0,137,-82,235,-246,295v-55,19,-127,31,-215,43v-58,8,-86,30,-86,56v0,27,30,41,90,41v165,1,286,12,361,34v87,25,154,70,201,131v31,41,47,94,47,158v0,129,-71,224,-209,295v-221,113,-594,104,-802,-8v-113,-61,-171,-134,-171,-221v0,-156,179,-210,317,-146v-64,13,-96,46,-96,99v-3,259,457,284,645,168v71,-44,107,-101,107,-170v0,-138,-146,-207,-438,-207r-154,4v-89,2,-155,-72,-154,-154v0,-21,11,-39,32,-53v21,-14,68,-35,140,-64v-159,-37,-274,-171,-274,-335v0,-218,214,-376,444,-369xm632,-420v127,0,217,-91,217,-219v0,-146,-124,-262,-272,-262v-120,0,-221,88,-221,205v0,145,130,276,276,276","w":1267},"h":{"d":"1044,-213v3,144,2,146,82,213r-361,0v80,-65,84,-69,84,-213r0,-383v5,-197,-85,-270,-250,-276v-114,-4,-209,55,-239,146v-14,139,-7,355,-7,513v0,146,2,145,84,213r-360,0v79,-68,82,-68,82,-213r0,-997v-3,-151,0,-142,-82,-213v101,-3,231,15,276,-41r0,575v70,-91,178,-137,324,-137v142,0,246,47,313,141v36,50,54,124,54,223r0,449","w":1206},"i":{"d":"264,-1397v69,0,131,65,131,133v0,75,-60,136,-135,136v-73,0,-133,-62,-133,-136v0,-72,64,-133,137,-133xm362,-213v3,145,3,145,82,213r-358,0v79,-68,82,-68,82,-213r0,-571v-3,-146,-2,-145,-82,-213v101,-3,231,15,276,-41r0,825","w":524},"j":{"d":"258,-1401v70,0,131,64,131,133v0,75,-59,135,-133,135v-75,0,-135,-60,-135,-135v0,-72,64,-133,137,-133xm168,-784v-3,-145,0,-148,-82,-213v103,-2,229,15,277,-41r0,1085v-5,186,8,225,-74,307v-73,73,-189,116,-342,135v173,-111,221,-181,221,-452r0,-821","w":520},"k":{"d":"1105,0v-92,5,-241,19,-301,-20v-23,-15,-54,-48,-92,-103r-174,-242v-27,-41,-94,-123,-146,-192r197,-217v64,-71,96,-123,96,-156v0,-21,-14,-43,-43,-67r330,0r-363,417r279,357v81,105,153,179,217,223xm353,-213v3,145,3,145,82,213r-358,0v79,-68,82,-68,82,-213r0,-997v-3,-151,0,-142,-82,-213v101,-3,231,15,276,-41r0,1251","w":1081},"l":{"d":"353,-213v3,145,3,145,82,213r-358,0v79,-68,82,-68,82,-213r0,-997v-3,-151,0,-142,-82,-213v101,-3,231,15,276,-41r0,1251","w":516},"m":{"d":"1724,-213v0,137,11,168,97,213r-375,0v80,-65,84,-69,84,-213r0,-334v4,-211,-71,-319,-248,-319v-103,0,-175,40,-217,121v-15,29,-23,83,-23,163r0,369v3,146,2,145,84,213r-360,0v80,-65,82,-69,82,-213r0,-352v3,-187,-79,-293,-246,-293v-156,0,-240,81,-240,262r0,383v3,144,2,148,82,213r-358,0v79,-68,82,-68,82,-213r0,-571v-3,-146,-2,-145,-82,-213v98,-3,224,16,266,-41r0,182v83,-113,189,-170,316,-170v142,0,252,63,329,190v93,-118,161,-190,340,-190v168,0,309,76,357,197v53,133,30,423,30,616","w":1896},"n":{"d":"1055,-213v3,146,1,145,82,213r-361,0v80,-67,84,-69,84,-213r0,-344v6,-220,-80,-309,-264,-309v-130,0,-234,60,-234,217r0,436v3,145,3,145,82,213r-358,0v79,-68,82,-68,82,-213r0,-571v-3,-146,-2,-145,-82,-213v99,-2,222,13,266,-41r0,180v141,-171,329,-222,529,-119v148,76,174,151,174,397r0,367","w":1214},"o":{"d":"667,-1026v299,0,542,235,542,520v0,301,-266,535,-575,535v-305,0,-553,-223,-553,-523v0,-307,256,-532,586,-532xm652,-117v201,0,336,-153,336,-358v0,-229,-136,-406,-356,-406v-196,0,-330,158,-330,361v0,217,143,403,350,403","w":1292},"p":{"d":"704,-1026v277,0,497,220,497,512v0,354,-316,637,-684,514r-116,-176v85,39,165,59,241,59v222,0,338,-146,338,-375v0,-215,-125,-390,-327,-389v-105,0,-189,39,-252,117v-36,44,-54,111,-54,201r0,796v0,133,8,157,82,209r-358,0v73,-52,82,-74,82,-209r0,-1017v-3,-146,-2,-145,-82,-213v101,-3,231,15,276,-41r0,168v87,-104,206,-156,357,-156","w":1284},"q":{"d":"1117,227v3,150,1,142,82,215r-358,0v81,-73,82,-65,82,-215r0,-1046v-99,-29,-179,-43,-242,-43v-221,-4,-377,146,-377,364v0,286,286,461,561,346r-104,156v-41,17,-89,25,-143,25v-299,0,-543,-200,-535,-488v10,-338,251,-541,604,-540r512,2v-80,68,-82,67,-82,213r0,1011","w":1280},"r":{"d":"168,-784v-3,-146,-2,-145,-82,-213v101,-3,231,15,276,-41r0,178v74,-131,172,-188,334,-158r0,199v-25,-23,-59,-35,-102,-35v-160,4,-232,103,-232,285r0,356v3,145,3,145,82,213r-358,0v79,-68,82,-68,82,-213r0,-571","w":714},"s":{"d":"518,-897v-98,0,-199,38,-199,121v0,30,17,56,50,78v33,22,93,48,179,75v133,43,223,85,271,127v56,50,84,114,84,189v1,327,-469,404,-768,282r-74,-213v146,89,281,134,406,134v114,0,233,-52,233,-152v0,-42,-16,-75,-49,-98v-28,-20,-98,-49,-207,-88v-124,-45,-209,-89,-256,-130v-47,-41,-70,-95,-70,-163v0,-205,193,-291,424,-291v93,0,174,10,242,29r0,184v-93,-56,-181,-84,-266,-84","w":956},"t":{"d":"55,-932v178,-31,266,-162,258,-387r84,0r0,322v89,-2,239,7,295,-13r0,195v-54,-53,-188,-36,-295,-39r0,459v0,103,14,170,39,202v55,70,158,94,256,56r-113,153v-177,53,-349,-63,-370,-227v-22,-172,-4,-447,-7,-643r-147,0r0,-78","w":710},"u":{"d":"1044,-213v3,146,1,145,82,213r-269,0r0,-141v-95,112,-139,170,-313,170v-255,0,-385,-141,-385,-426r0,-387v-3,-146,-2,-145,-82,-213v101,-2,232,14,276,-41r0,602v-3,196,74,293,246,297v150,4,250,-107,250,-258r0,-387v-3,-145,0,-148,-82,-213v102,-3,231,15,277,-41r0,825","w":1206},"v":{"d":"1160,-997r-492,1077v-161,-98,-181,-103,-254,-270r-254,-584v-67,-148,-58,-146,-184,-223v111,-1,242,10,301,-39v3,31,12,65,27,100r323,752r258,-578v49,-113,59,-163,-32,-235r307,0","w":1163},"w":{"d":"1702,-997r-432,1054v-122,-69,-161,-102,-209,-235r-194,-533r-295,768v-138,-74,-174,-94,-228,-235r-231,-604v-53,-131,-46,-142,-129,-215v95,-1,208,9,260,-33v3,35,16,83,39,143r244,647r209,-542v36,-108,55,-151,-31,-215r285,0v-6,54,-3,45,20,110r231,647r211,-542v46,-120,53,-144,-41,-215r291,0","w":1705},"x":{"d":"1141,0r-225,12v-92,-2,-80,-11,-129,-78r-240,-327r-219,256v-47,58,-55,94,10,137r-348,0r463,-518v-118,-148,-274,-385,-408,-479r217,-9v30,0,51,4,62,12v11,8,31,31,61,70r201,269r158,-189v55,-65,60,-111,-17,-153r361,0r-406,465r254,335v75,100,144,166,205,197","w":1130},"y":{"d":"1139,-997r-461,1099v-87,212,-204,340,-459,340v-73,0,-161,-18,-262,-55r195,-141v41,26,81,39,122,39v111,0,195,-83,254,-248r21,-57v-47,-47,-84,-100,-111,-160r-286,-625v-51,-105,-70,-148,-162,-192v87,-1,194,-16,274,-5v13,2,28,25,45,66r330,743r227,-575v41,-110,58,-166,-30,-229r303,0","w":1148},"z":{"d":"1060,-233r-120,233r-918,0r614,-842v-220,-23,-421,-27,-548,62r106,-217r768,0r-588,833v105,11,219,17,342,17v133,0,247,-29,344,-86","w":1058},"{":{"d":"379,94v4,107,5,111,112,115r105,0r0,117r-320,0v-37,0,-61,-12,-73,-37v-17,-135,-3,-468,-9,-645v-3,-82,-29,-88,-104,-115r0,-154v71,-26,104,-37,104,-114r0,-449v0,-123,3,-192,13,-207v12,-19,36,-28,69,-28r320,0r0,116r-103,0v-107,4,-114,8,-114,115r0,471v-2,107,-21,130,-96,172v74,44,96,67,96,174r0,469","w":681},"|":{"d":"633,356r-197,0r0,-1779r197,0r0,1779","w":1067},"}":{"d":"487,-739v2,80,31,88,105,114r0,154v-76,28,-105,29,-105,115r0,446v0,123,-5,192,-14,207v-12,19,-35,29,-70,29r-317,0r0,-117r102,0v108,-4,115,-7,115,-115r0,-469v2,-106,22,-133,96,-174v-75,-42,-96,-65,-96,-172r0,-471v-4,-108,-7,-111,-115,-115r-102,0r0,-116r317,0v39,0,64,12,76,37v15,136,3,470,8,647","w":681},"~":{"d":"931,-1434v106,-7,125,-50,180,-133r115,68v-74,152,-145,254,-319,254v-45,0,-146,-33,-301,-98v-150,-64,-214,-30,-297,116r-113,-73v67,-153,141,-247,301,-263v76,-8,360,134,434,129","w":1423},"\u00a8":{"w":1033},"\u00a9":{"d":"841,-1458v396,0,741,350,741,747v0,403,-348,746,-751,746v-404,0,-750,-343,-750,-746v0,-409,349,-747,760,-747xm831,-53v352,0,651,-305,651,-658v0,-358,-300,-659,-658,-659v-345,0,-643,312,-643,659v0,353,299,658,650,658xm581,-739v0,185,148,350,331,350v87,0,190,-30,310,-90r-78,168v-67,27,-138,41,-215,41v-300,0,-514,-165,-514,-451v0,-264,205,-446,475,-446v78,0,163,11,256,34r0,164v-91,-50,-175,-75,-252,-75v-178,0,-313,129,-313,305","w":1667},"\u00ae":{"d":"841,-1458v396,0,741,350,741,747v0,403,-348,746,-751,746v-404,0,-750,-343,-750,-746v0,-409,349,-747,760,-747xm831,-53v352,0,651,-305,651,-658v0,-358,-300,-659,-658,-659v-345,0,-643,312,-643,659v0,353,299,658,650,658xm765,-1133v187,-19,352,54,352,218v0,106,-71,180,-213,223v166,202,205,278,394,383v-62,11,-103,16,-123,16v-63,0,-133,-41,-209,-123v-104,-112,-185,-216,-242,-311v153,-25,229,-84,229,-178v0,-115,-121,-153,-243,-125r0,581v0,116,6,133,82,170r-312,0v75,-38,83,-52,82,-170r0,-514v0,-117,-8,-128,-82,-170r285,0","w":1667},"\u00b4":{"w":1033},"\u00b6":{"w":1033},"\u00bc":{"w":1967},"\u00bd":{"w":1967},"\u00be":{"w":1967},"\u00c0":{"d":"944,-1538r-590,-176r119,-160xm1566,0r-448,0v106,-73,91,-76,41,-207r-127,-330r-547,0r-123,330v-37,102,-43,157,53,207r-397,0v124,-84,133,-121,201,-291r381,-950v34,-90,41,-140,-41,-182r344,0r454,1132v64,153,93,216,209,291xm976,-676r-219,-565r-221,565r440,0"},"\u00c1":{"d":"1220,-1714r-590,176r471,-336xm1566,0r-448,0v106,-73,91,-76,41,-207r-127,-330r-547,0r-123,330v-37,102,-43,157,53,207r-397,0v124,-84,133,-121,201,-291r381,-950v34,-90,41,-140,-41,-182r344,0r454,1132v64,153,93,216,209,291xm976,-676r-219,-565r-221,565r440,0"},"\u1ea2":{"d":"1566,0r-448,0v106,-73,91,-76,41,-207r-127,-330r-547,0r-123,330v-37,102,-43,157,53,207r-397,0v124,-84,133,-121,201,-291r381,-950v34,-90,41,-140,-41,-182r344,0r454,1132v64,153,93,216,209,291xm976,-676r-219,-565r-221,565r440,0xm660,-1962v178,-79,439,43,336,236v-18,33,-143,124,-160,146v-17,23,-10,38,1,78r-127,13v-27,-106,16,-144,81,-194v54,-41,81,-77,81,-109v0,-56,-57,-94,-117,-92v-28,0,-94,23,-197,68"},"\u00c3":{"d":"598,-1819v90,0,230,84,360,84v47,0,114,-37,203,-112v-44,118,-72,260,-225,260v-73,0,-304,-91,-365,-84v-86,10,-100,26,-166,80v31,-87,53,-142,66,-162v28,-44,71,-66,127,-66xm1566,0r-448,0v106,-73,91,-76,41,-207r-127,-330r-547,0r-123,330v-37,102,-43,157,53,207r-397,0v124,-84,133,-121,201,-291r381,-950v34,-90,41,-140,-41,-182r344,0r454,1132v64,153,93,216,209,291xm976,-676r-219,-565r-221,565r440,0"},"\u1ea0":{"d":"759,165v68,0,127,61,127,129v0,69,-59,131,-129,131v-72,0,-131,-60,-131,-131v0,-70,63,-129,133,-129xm1566,0r-448,0v106,-73,91,-76,41,-207r-127,-330r-547,0r-123,330v-37,102,-43,157,53,207r-397,0v124,-84,133,-121,201,-291r381,-950v34,-90,41,-140,-41,-182r344,0r454,1132v64,153,93,216,209,291xm976,-676r-219,-565r-221,565r440,0"},"\u00c2":{"d":"1136,-1550v-99,-1,-216,-36,-350,-105v-125,70,-244,105,-356,105r356,-305xm1566,0r-448,0v106,-73,91,-76,41,-207r-127,-330r-547,0r-123,330v-37,102,-43,157,53,207r-397,0v124,-84,133,-121,201,-291r381,-950v34,-90,41,-140,-41,-182r344,0r454,1132v64,153,93,216,209,291xm976,-676r-219,-565r-221,565r440,0"},"\u1ea6":{"d":"1088,-1819r-590,-176r119,-160xm1566,0r-448,0v106,-73,91,-76,41,-207r-127,-330r-547,0r-123,330v-37,102,-43,157,53,207r-397,0v124,-84,133,-121,201,-291r381,-950v34,-90,41,-140,-41,-182r344,0r454,1132v64,153,93,216,209,291xm976,-676r-219,-565r-221,565r440,0xm1136,-1550v-99,-1,-216,-36,-350,-105v-125,70,-244,105,-356,105r356,-305"},"\u1ea4":{"d":"1112,-1996r-590,176r471,-336xm1566,0r-448,0v106,-73,91,-76,41,-207r-127,-330r-547,0r-123,330v-37,102,-43,157,53,207r-397,0v124,-84,133,-121,201,-291r381,-950v34,-90,41,-140,-41,-182r344,0r454,1132v64,153,93,216,209,291xm976,-676r-219,-565r-221,565r440,0xm1136,-1550v-99,-1,-216,-36,-350,-105v-125,70,-244,105,-356,105r356,-305"},"\u1ea8":{"d":"1566,0r-448,0v106,-73,91,-76,41,-207r-127,-330r-547,0r-123,330v-37,102,-43,157,53,207r-397,0v124,-84,133,-121,201,-291r381,-950v34,-90,41,-140,-41,-182r344,0r454,1132v64,153,93,216,209,291xm976,-676r-219,-565r-221,565r440,0xm930,-2215v178,-79,439,43,336,236v-18,33,-143,124,-160,146v-17,23,-10,38,1,78r-127,13v-27,-106,16,-144,81,-194v54,-41,81,-77,81,-109v0,-56,-57,-94,-117,-92v-28,0,-94,23,-197,68xm1136,-1550v-99,-1,-216,-36,-350,-105v-125,70,-244,105,-356,105r356,-305"},"\u1eaa":{"d":"671,-2091v90,0,230,84,360,84v47,0,114,-37,203,-112v-44,118,-72,260,-225,260v-73,0,-304,-91,-365,-84v-86,10,-100,26,-166,80v31,-87,53,-142,66,-162v28,-44,71,-66,127,-66xm1566,0r-448,0v106,-73,91,-76,41,-207r-127,-330r-547,0r-123,330v-37,102,-43,157,53,207r-397,0v124,-84,133,-121,201,-291r381,-950v34,-90,41,-140,-41,-182r344,0r454,1132v64,153,93,216,209,291xm976,-676r-219,-565r-221,565r440,0xm1136,-1550v-99,-1,-216,-36,-350,-105v-125,70,-244,105,-356,105r356,-305"},"\u1eac":{"d":"759,165v68,0,127,61,127,129v0,69,-59,131,-129,131v-72,0,-131,-60,-131,-131v0,-70,63,-129,133,-129xm1566,0r-448,0v106,-73,91,-76,41,-207r-127,-330r-547,0r-123,330v-37,102,-43,157,53,207r-397,0v124,-84,133,-121,201,-291r381,-950v34,-90,41,-140,-41,-182r344,0r454,1132v64,153,93,216,209,291xm976,-676r-219,-565r-221,565r440,0xm1136,-1550v-99,-1,-216,-36,-350,-105v-125,70,-244,105,-356,105r356,-305"},"\u0102":{"d":"1566,0r-448,0v106,-73,91,-76,41,-207r-127,-330r-547,0r-123,330v-37,102,-43,157,53,207r-397,0v124,-84,133,-121,201,-291r381,-950v34,-90,41,-140,-41,-182r344,0r454,1132v64,153,93,216,209,291xm976,-676r-219,-565r-221,565r440,0xm751,-1666v134,0,158,-42,213,-140r121,0v-46,167,-145,270,-334,270v-183,0,-284,-94,-324,-270r121,0v47,93,114,140,203,140"},"\u1eb0":{"d":"952,-1819r-590,-176r119,-160xm1566,0r-448,0v106,-73,91,-76,41,-207r-127,-330r-547,0r-123,330v-37,102,-43,157,53,207r-397,0v124,-84,133,-121,201,-291r381,-950v34,-90,41,-140,-41,-182r344,0r454,1132v64,153,93,216,209,291xm976,-676r-219,-565r-221,565r440,0xm751,-1666v134,0,158,-42,213,-140r121,0v-46,167,-145,270,-334,270v-182,0,-284,-93,-323,-270r120,0v47,93,114,140,203,140"},"\u1eae":{"d":"1112,-1996r-590,176r471,-336xm1566,0r-448,0v106,-73,91,-76,41,-207r-127,-330r-547,0r-123,330v-37,102,-43,157,53,207r-397,0v124,-84,133,-121,201,-291r381,-950v34,-90,41,-140,-41,-182r344,0r454,1132v64,153,93,216,209,291xm976,-676r-219,-565r-221,565r440,0xm751,-1666v134,0,158,-42,213,-140r121,0v-46,167,-145,270,-334,270v-182,0,-284,-93,-323,-270r120,0v47,93,114,140,203,140"},"\u1eb2":{"d":"1566,0r-448,0v106,-73,91,-76,41,-207r-127,-330r-547,0r-123,330v-37,102,-43,157,53,207r-397,0v124,-84,133,-121,201,-291r381,-950v34,-90,41,-140,-41,-182r344,0r454,1132v64,153,93,216,209,291xm976,-676r-219,-565r-221,565r440,0xm685,-2242v178,-79,439,43,336,236v-18,33,-142,124,-159,146v-17,23,-11,38,0,78r-127,13v-27,-106,16,-144,81,-194v54,-41,81,-77,81,-109v0,-56,-57,-94,-117,-92v-28,0,-94,23,-197,68xm751,-1666v134,0,158,-42,213,-140r121,0v-46,167,-145,270,-334,270v-182,0,-284,-93,-323,-270r120,0v47,93,114,140,203,140"},"\u1eb4":{"d":"671,-2091v90,0,230,84,360,84v47,0,114,-37,203,-112v-44,118,-72,260,-225,260v-73,0,-304,-91,-365,-84v-86,10,-100,26,-166,80v31,-87,53,-142,66,-162v28,-44,71,-66,127,-66xm1566,0r-448,0v106,-73,91,-76,41,-207r-127,-330r-547,0r-123,330v-37,102,-43,157,53,207r-397,0v124,-84,133,-121,201,-291r381,-950v34,-90,41,-140,-41,-182r344,0r454,1132v64,153,93,216,209,291xm976,-676r-219,-565r-221,565r440,0xm751,-1666v134,0,158,-42,213,-140r121,0v-46,167,-145,270,-334,270v-182,0,-284,-93,-323,-270r120,0v47,93,114,140,203,140"},"\u1eb6":{"d":"759,165v68,0,127,61,127,129v0,69,-59,131,-129,131v-72,0,-131,-60,-131,-131v0,-70,63,-129,133,-129xm1566,0r-448,0v106,-73,91,-76,41,-207r-127,-330r-547,0r-123,330v-37,102,-43,157,53,207r-397,0v124,-84,133,-121,201,-291r381,-950v34,-90,41,-140,-41,-182r344,0r454,1132v64,153,93,216,209,291xm976,-676r-219,-565r-221,565r440,0xm751,-1666v134,0,158,-42,213,-140r121,0v-46,167,-145,270,-334,270v-182,0,-284,-93,-323,-270r120,0v47,93,114,140,203,140"},"\u00c8":{"d":"751,-1538r-590,-176r119,-160xm907,-1184v-78,-68,-122,-86,-264,-86v-91,0,-165,5,-224,15r0,403r289,0v29,0,53,-5,74,-14r0,229v-50,-78,-230,-56,-363,-59r0,514v261,43,527,28,688,-101r-100,283r-901,0v89,-58,96,-112,96,-279r0,-868v0,-78,-3,-130,-8,-156v-12,-55,-41,-95,-88,-120r719,0v31,0,59,-4,82,-13r0,252","w":1126},"\u00c9":{"d":"987,-1714r-590,176r471,-336xm907,-1184v-78,-68,-122,-86,-264,-86v-91,0,-165,5,-224,15r0,403r289,0v29,0,53,-5,74,-14r0,229v-50,-78,-230,-56,-363,-59r0,514v261,43,527,28,688,-101r-100,283r-901,0v89,-58,96,-112,96,-279r0,-868v0,-78,-3,-130,-8,-156v-12,-55,-41,-95,-88,-120r719,0v31,0,59,-4,82,-13r0,252","w":1126},"\u1eba":{"d":"907,-1184v-78,-68,-122,-86,-264,-86v-91,0,-165,5,-224,15r0,403r289,0v29,0,53,-5,74,-14r0,229v-50,-78,-230,-56,-363,-59r0,514v261,43,527,28,688,-101r-100,283r-901,0v89,-58,96,-112,96,-279r0,-868v0,-78,-3,-130,-8,-156v-12,-55,-41,-95,-88,-120r719,0v31,0,59,-4,82,-13r0,252xm460,-1962v178,-79,437,43,336,236v-17,33,-144,124,-160,146v-17,23,-10,39,1,78r-127,13v-30,-105,17,-144,81,-194v53,-41,80,-77,80,-109v0,-56,-57,-94,-117,-92v-27,0,-93,23,-197,68","w":1126},"\u1ebc":{"d":"907,-1184v-78,-68,-122,-86,-264,-86v-91,0,-165,5,-224,15r0,403r289,0v29,0,53,-5,74,-14r0,229v-50,-78,-230,-56,-363,-59r0,514v261,43,527,28,688,-101r-100,283r-901,0v89,-58,96,-112,96,-279r0,-868v0,-78,-3,-130,-8,-156v-12,-55,-41,-95,-88,-120r719,0v31,0,59,-4,82,-13r0,252xm398,-1819v91,0,231,84,361,84v46,0,113,-37,202,-112v-43,120,-72,260,-225,260v-122,0,-340,-139,-455,-62v-13,8,-38,27,-75,58v31,-87,52,-142,65,-162v28,-44,71,-66,127,-66","w":1126},"\u1eb8":{"d":"907,-1184v-78,-68,-122,-86,-264,-86v-91,0,-165,5,-224,15r0,403r289,0v29,0,53,-5,74,-14r0,229v-50,-78,-230,-56,-363,-59r0,514v261,43,527,28,688,-101r-100,283r-901,0v89,-58,96,-112,96,-279r0,-868v0,-78,-3,-130,-8,-156v-12,-55,-41,-95,-88,-120r719,0v31,0,59,-4,82,-13r0,252xm568,165v67,0,127,61,127,129v0,69,-60,131,-129,131v-72,0,-131,-60,-131,-131v0,-70,63,-129,133,-129","w":1126},"\u00ca":{"d":"915,-1550v-100,-1,-217,-36,-350,-105v-126,70,-245,105,-357,105r357,-305xm907,-1184v-78,-68,-122,-86,-264,-86v-91,0,-165,5,-224,15r0,403r289,0v29,0,53,-5,74,-14r0,229v-50,-78,-230,-56,-363,-59r0,514v261,43,527,28,688,-101r-100,283r-901,0v89,-58,96,-112,96,-279r0,-868v0,-78,-3,-130,-8,-156v-12,-55,-41,-95,-88,-120r719,0v31,0,59,-4,82,-13r0,252","w":1126},"\u1ec0":{"d":"895,-1793r-590,-176r119,-160xm907,-1184v-78,-68,-122,-86,-264,-86v-91,0,-165,5,-224,15r0,403r289,0v29,0,53,-5,74,-14r0,229v-50,-78,-230,-56,-363,-59r0,514v261,43,527,28,688,-101r-100,283r-901,0v89,-58,96,-112,96,-279r0,-868v0,-78,-3,-130,-8,-156v-12,-55,-41,-95,-88,-120r719,0v31,0,59,-4,82,-13r0,252xm915,-1550v-100,-1,-217,-36,-350,-105v-126,70,-245,105,-357,105r357,-305","w":1126},"\u1ebe":{"d":"869,-1987r-590,176r471,-336xm907,-1184v-78,-68,-122,-86,-264,-86v-91,0,-165,5,-224,15r0,403r289,0v29,0,53,-5,74,-14r0,229v-50,-78,-230,-56,-363,-59r0,514v261,43,527,28,688,-101r-100,283r-901,0v89,-58,96,-112,96,-279r0,-868v0,-78,-3,-130,-8,-156v-12,-55,-41,-95,-88,-120r719,0v31,0,59,-4,82,-13r0,252xm915,-1550v-100,-1,-217,-36,-350,-105v-126,70,-245,105,-357,105r357,-305","w":1126},"\u1ec2":{"d":"907,-1184v-78,-68,-122,-86,-264,-86v-91,0,-165,5,-224,15r0,403r289,0v29,0,53,-5,74,-14r0,229v-50,-78,-230,-56,-363,-59r0,514v261,43,527,28,688,-101r-100,283r-901,0v89,-58,96,-112,96,-279r0,-868v0,-78,-3,-130,-8,-156v-12,-55,-41,-95,-88,-120r719,0v31,0,59,-4,82,-13r0,252xm732,-2179v178,-79,437,43,336,236v-17,33,-144,124,-160,146v-17,23,-10,39,1,78r-127,13v-30,-105,17,-144,81,-194v53,-41,80,-77,80,-109v0,-56,-57,-94,-117,-92v-27,0,-93,23,-197,68xm915,-1550v-100,-1,-217,-36,-350,-105v-126,70,-245,105,-357,105r357,-305","w":1126},"\u1ec4":{"d":"907,-1184v-78,-68,-122,-86,-264,-86v-91,0,-165,5,-224,15r0,403r289,0v29,0,53,-5,74,-14r0,229v-50,-78,-230,-56,-363,-59r0,514v261,43,527,28,688,-101r-100,283r-901,0v89,-58,96,-112,96,-279r0,-868v0,-78,-3,-130,-8,-156v-12,-55,-41,-95,-88,-120r719,0v31,0,59,-4,82,-13r0,252xm480,-2063v91,0,231,84,361,84v46,0,113,-37,202,-112v-43,120,-72,260,-225,260v-122,0,-340,-139,-455,-62v-13,8,-38,27,-75,58v31,-87,52,-142,65,-162v28,-44,71,-66,127,-66xm915,-1550v-100,-1,-217,-36,-350,-105v-126,70,-245,105,-357,105r357,-305","w":1126},"\u1ec6":{"d":"907,-1184v-78,-68,-122,-86,-264,-86v-91,0,-165,5,-224,15r0,403r289,0v29,0,53,-5,74,-14r0,229v-50,-78,-230,-56,-363,-59r0,514v261,43,527,28,688,-101r-100,283r-901,0v89,-58,96,-112,96,-279r0,-868v0,-78,-3,-130,-8,-156v-12,-55,-41,-95,-88,-120r719,0v31,0,59,-4,82,-13r0,252xm568,165v67,0,127,61,127,129v0,69,-60,131,-129,131v-72,0,-131,-60,-131,-131v0,-70,63,-129,133,-129xm915,-1550v-100,-1,-217,-36,-350,-105v-126,70,-245,105,-357,105r357,-305","w":1126},"\u00cc":{"d":"514,-1538r-532,-176r119,-160xm517,0r-410,0v47,-25,76,-65,88,-121v5,-25,8,-76,8,-155r0,-871v0,-79,-3,-131,-8,-156v-12,-55,-41,-95,-88,-120r410,0v-47,25,-76,65,-89,120v-5,25,-8,77,-8,156r0,871v0,79,3,130,8,155v13,56,42,96,89,121","w":622},"\u00cd":{"d":"649,-1714r-533,176r414,-336xm516,0r-410,0v47,-25,76,-65,88,-121v5,-25,8,-76,8,-155r0,-871v0,-79,-3,-131,-8,-156v-12,-55,-41,-95,-88,-120r410,0v-47,25,-76,65,-88,120v-6,25,-9,77,-9,156r0,871v0,79,3,130,9,155v12,56,41,96,88,121","w":622},"\u1ec8":{"d":"516,0r-410,0v47,-25,76,-65,88,-121v5,-25,8,-76,8,-155r0,-871v0,-79,-3,-131,-8,-156v-12,-55,-41,-95,-88,-120r410,0v-47,25,-76,65,-88,120v-6,25,-9,77,-9,156r0,871v0,79,3,130,9,155v12,56,41,96,88,121xm215,-1962v178,-79,436,43,335,236v-17,33,-143,124,-159,146v-17,23,-10,39,1,78r-127,13v-30,-105,17,-144,81,-194v53,-41,80,-77,80,-109v0,-56,-57,-94,-117,-92v-27,0,-93,23,-197,68","w":622},"\u0128":{"d":"516,0r-410,0v47,-25,76,-65,88,-121v6,-25,9,-76,9,-155r0,-871v0,-79,-3,-131,-9,-156v-12,-55,-41,-95,-88,-120r410,0v-47,25,-76,65,-88,120v-5,25,-8,77,-8,156r0,871v0,79,3,130,8,155v12,56,41,96,88,121xm191,-1819v90,0,230,84,360,84v47,0,114,-37,203,-112v-44,119,-72,260,-226,260v-72,0,-303,-91,-364,-84v-86,10,-100,26,-166,80v31,-87,53,-142,66,-162v28,-44,71,-66,127,-66","w":622},"\u1eca":{"d":"516,0r-410,0v47,-25,76,-65,88,-121v5,-25,8,-76,8,-155r0,-871v0,-79,-3,-131,-8,-156v-12,-55,-41,-95,-88,-120r410,0v-47,25,-76,65,-88,120v-6,25,-9,77,-9,156r0,871v0,79,3,130,9,155v12,56,41,96,88,121xm314,165v67,0,127,61,127,129v0,69,-60,131,-129,131v-72,0,-131,-60,-131,-131v0,-70,63,-129,133,-129","w":622},"\u00d2":{"d":"1062,-1538r-590,-176r119,-160xm898,-1460v433,6,758,293,770,739v12,420,-373,756,-799,756v-419,0,-788,-329,-788,-740v0,-430,376,-761,817,-755xm878,-121v324,0,544,-239,544,-567v0,-330,-230,-617,-555,-617v-316,0,-542,242,-542,564v0,316,219,620,553,620","w":1753},"\u00d3":{"d":"1298,-1714r-590,176r471,-336xm898,-1460v433,6,758,293,770,739v12,420,-373,756,-799,756v-419,0,-788,-329,-788,-740v0,-430,376,-761,817,-755xm878,-121v324,0,544,-239,544,-567v0,-330,-230,-617,-555,-617v-316,0,-542,242,-542,564v0,316,219,620,553,620","w":1753},"\u1ece":{"d":"898,-1460v433,6,758,293,770,739v12,420,-373,756,-799,756v-419,0,-788,-329,-788,-740v0,-430,376,-761,817,-755xm878,-121v324,0,544,-239,544,-567v0,-330,-230,-617,-555,-617v-316,0,-542,242,-542,564v0,316,219,620,553,620xm739,-1990v178,-79,436,43,335,236v-17,33,-141,124,-158,146v-17,23,-11,38,0,78r-127,13v-30,-105,17,-144,81,-194v53,-41,80,-77,80,-109v0,-56,-57,-94,-117,-92v-27,0,-93,23,-197,68","w":1753},"\u00d5":{"d":"710,-1819v91,0,230,84,360,84v47,0,114,-37,203,-112v-44,118,-72,260,-225,260v-123,0,-340,-139,-455,-62v-13,8,-39,27,-76,58v31,-87,53,-142,66,-162v28,-44,71,-66,127,-66xm898,-1460v433,6,758,293,770,739v12,420,-373,756,-799,756v-419,0,-788,-329,-788,-740v0,-430,376,-761,817,-755xm878,-121v324,0,544,-239,544,-567v0,-330,-230,-617,-555,-617v-316,0,-542,242,-542,564v0,316,219,620,553,620","w":1753},"\u1ecc":{"d":"898,-1460v433,6,758,293,770,739v12,420,-373,756,-799,756v-419,0,-788,-329,-788,-740v0,-430,376,-761,817,-755xm878,-121v324,0,544,-239,544,-567v0,-330,-230,-617,-555,-617v-316,0,-542,242,-542,564v0,316,219,620,553,620xm878,165v67,0,127,61,127,129v0,69,-60,131,-129,131v-73,0,-131,-59,-131,-131v0,-70,62,-129,133,-129","w":1753},"\u00d4":{"d":"1228,-1550v-100,-1,-217,-36,-350,-105v-126,70,-245,105,-357,105r357,-305xm898,-1460v433,6,758,293,770,739v12,420,-373,756,-799,756v-419,0,-788,-329,-788,-740v0,-430,376,-761,817,-755xm878,-121v324,0,544,-239,544,-567v0,-330,-230,-617,-555,-617v-316,0,-542,242,-542,564v0,316,219,620,553,620","w":1753},"\u1ed2":{"d":"1216,-1792r-590,-176r119,-160xm898,-1460v433,6,758,293,770,739v12,420,-373,756,-799,756v-419,0,-788,-329,-788,-740v0,-430,376,-761,817,-755xm878,-121v324,0,544,-239,544,-567v0,-330,-230,-617,-555,-617v-316,0,-542,242,-542,564v0,316,219,620,553,620xm1228,-1550v-100,-1,-217,-36,-350,-105v-126,70,-245,105,-357,105r357,-305","w":1753},"\u1ed0":{"d":"1198,-1986r-590,176r471,-336xm898,-1460v433,6,758,293,770,739v12,420,-373,756,-799,756v-419,0,-788,-329,-788,-740v0,-430,376,-761,817,-755xm878,-121v324,0,544,-239,544,-567v0,-330,-230,-617,-555,-617v-316,0,-542,242,-542,564v0,316,219,620,553,620xm1228,-1550v-100,-1,-217,-36,-350,-105v-126,70,-245,105,-357,105r357,-305","w":1753},"\u1ed4":{"d":"898,-1460v433,6,758,293,770,739v12,420,-373,756,-799,756v-419,0,-788,-329,-788,-740v0,-430,376,-761,817,-755xm878,-121v324,0,544,-239,544,-567v0,-330,-230,-617,-555,-617v-316,0,-542,242,-542,564v0,316,219,620,553,620xm1038,-2181v178,-79,437,43,336,236v-17,33,-143,124,-160,146v-17,23,-10,38,1,78r-127,13v-30,-105,17,-144,81,-194v53,-41,80,-77,80,-109v0,-56,-57,-94,-117,-92v-27,0,-93,23,-197,68xm1228,-1550v-100,-1,-217,-36,-350,-105v-126,70,-245,105,-357,105r357,-305","w":1753},"\u1ed6":{"d":"819,-2072v91,0,230,84,360,84v47,0,114,-37,203,-112v-44,118,-72,260,-225,260v-123,0,-340,-139,-455,-62v-13,8,-39,27,-76,58v31,-87,53,-142,66,-162v28,-44,71,-66,127,-66xm898,-1460v433,6,758,293,770,739v12,420,-373,756,-799,756v-419,0,-788,-329,-788,-740v0,-430,376,-761,817,-755xm878,-121v324,0,544,-239,544,-567v0,-330,-230,-617,-555,-617v-316,0,-542,242,-542,564v0,316,219,620,553,620xm1228,-1550v-100,-1,-217,-36,-350,-105v-126,70,-245,105,-357,105r357,-305","w":1753},"\u1ed8":{"d":"898,-1460v433,6,758,293,770,739v12,420,-373,756,-799,756v-419,0,-788,-329,-788,-740v0,-430,376,-761,817,-755xm878,-121v324,0,544,-239,544,-567v0,-330,-230,-617,-555,-617v-316,0,-542,242,-542,564v0,316,219,620,553,620xm878,165v67,0,127,61,127,129v0,69,-60,131,-129,131v-73,0,-131,-59,-131,-131v0,-70,62,-129,133,-129xm1228,-1550v-100,-1,-217,-36,-350,-105v-126,70,-245,105,-357,105r357,-305","w":1753},"\u00d9":{"d":"929,-1538r-589,-176r118,-160xm1433,-1423v-87,60,-96,110,-96,276r0,871v0,77,2,129,8,155v12,55,42,95,88,121r-305,0r0,-150v-103,123,-245,185,-428,185v-240,1,-431,-125,-483,-311v-14,-49,-21,-130,-21,-242r0,-629v0,-79,-3,-131,-8,-156v-12,-55,-41,-95,-88,-120r410,0v-88,60,-97,110,-97,276r0,629v-7,256,128,395,351,395v137,0,243,-50,315,-153v28,-41,41,-97,41,-168r0,-703v0,-78,-2,-130,-8,-156v-12,-54,-42,-94,-88,-120r409,0","w":1540},"\u00da":{"d":"1208,-1714r-590,176r471,-336xm1433,-1423v-87,60,-96,110,-96,276r0,871v0,77,2,129,8,155v12,55,42,95,88,121r-305,0r0,-150v-103,123,-245,185,-428,185v-240,1,-431,-125,-483,-311v-14,-49,-21,-130,-21,-242r0,-629v0,-79,-3,-131,-8,-156v-12,-55,-41,-95,-88,-120r410,0v-88,60,-97,110,-97,276r0,629v-7,256,128,395,351,395v137,0,243,-50,315,-153v28,-41,41,-97,41,-168r0,-703v0,-78,-2,-130,-8,-156v-12,-54,-42,-94,-88,-120r409,0","w":1540},"\u1ee6":{"d":"1433,-1423v-87,60,-96,110,-96,276r0,871v0,77,2,129,8,155v12,55,42,95,88,121r-305,0r0,-150v-103,123,-245,185,-428,185v-240,1,-431,-125,-483,-311v-14,-49,-21,-130,-21,-242r0,-629v0,-79,-3,-131,-8,-156v-12,-55,-41,-95,-88,-120r410,0v-88,60,-97,110,-97,276r0,629v-7,256,128,395,351,395v137,0,243,-50,315,-153v28,-41,41,-97,41,-168r0,-703v0,-78,-2,-130,-8,-156v-12,-54,-42,-94,-88,-120r409,0xm686,-1990v178,-80,437,44,335,236v-18,33,-141,126,-159,146v-15,25,-9,38,0,78r-127,13v-27,-106,16,-144,81,-194v54,-41,81,-77,81,-109v0,-56,-57,-94,-117,-92v-28,0,-94,23,-197,68","w":1540},"\u0168":{"d":"1433,-1423v-87,60,-96,110,-96,276r0,871v0,77,2,129,8,155v12,55,42,95,88,121r-305,0r0,-150v-103,123,-245,185,-428,185v-240,1,-431,-125,-483,-311v-14,-49,-21,-130,-21,-242r0,-629v0,-79,-3,-131,-8,-156v-12,-55,-41,-95,-88,-120r410,0v-88,60,-97,110,-97,276r0,629v-7,256,128,395,351,395v137,0,243,-50,315,-153v28,-41,41,-97,41,-168r0,-703v0,-78,-2,-130,-8,-156v-12,-54,-42,-94,-88,-120r409,0xm638,-1819v91,0,231,84,361,84v46,0,114,-37,203,-112v-48,126,-70,260,-226,260v-121,0,-340,-139,-454,-62v-13,9,-39,27,-76,58v31,-87,52,-142,65,-162v28,-44,71,-66,127,-66","w":1540},"\u1ee4":{"d":"1433,-1423v-87,60,-96,110,-96,276r0,871v0,77,2,129,8,155v12,55,42,95,88,121r-305,0r0,-150v-103,123,-245,185,-428,185v-240,1,-431,-125,-483,-311v-14,-49,-21,-130,-21,-242r0,-629v0,-79,-3,-131,-8,-156v-12,-55,-41,-95,-88,-120r410,0v-88,60,-97,110,-97,276r0,629v-7,256,128,395,351,395v137,0,243,-50,315,-153v28,-41,41,-97,41,-168r0,-703v0,-78,-2,-130,-8,-156v-12,-54,-42,-94,-88,-120r409,0xm788,165v67,0,127,61,127,129v0,69,-60,131,-129,131v-72,0,-131,-60,-131,-131v0,-70,63,-129,133,-129","w":1540},"\u01af":{"d":"414,-518v-7,257,128,395,350,395v138,0,244,-50,315,-153v28,-41,41,-97,41,-168r0,-703v0,-78,-3,-130,-8,-156v-12,-54,-41,-94,-88,-120r312,0r0,109v37,-19,59,-39,67,-61v3,-9,-5,-24,-29,-43v-108,-87,9,-261,142,-198v65,31,97,111,57,193v-39,83,-118,147,-237,190r1,957v0,77,3,129,9,155v12,55,41,95,88,121r-306,0r0,-150v-102,123,-245,185,-428,185v-240,1,-431,-125,-483,-311v-13,-49,-20,-130,-20,-242r0,-629v0,-79,-3,-131,-9,-156v-12,-55,-41,-95,-88,-120r410,0v-88,60,-96,110,-96,276r0,629","w":1540},"\u1eea":{"d":"930,-1538r-590,-176r119,-160xm414,-518v-7,257,128,395,350,395v138,0,244,-50,315,-153v28,-41,41,-97,41,-168r0,-703v0,-78,-3,-130,-8,-156v-12,-54,-41,-94,-88,-120r312,0r0,109v37,-19,59,-39,67,-61v3,-9,-5,-24,-29,-43v-108,-87,9,-261,142,-198v65,31,97,111,57,193v-39,83,-118,147,-237,190r1,957v0,77,3,129,9,155v12,55,41,95,88,121r-306,0r0,-150v-102,123,-245,185,-428,185v-240,1,-431,-125,-483,-311v-13,-49,-20,-130,-20,-242r0,-629v0,-79,-3,-131,-9,-156v-12,-55,-41,-95,-88,-120r410,0v-88,60,-96,110,-96,276r0,629","w":1540},"\u1ee8":{"d":"1208,-1714r-590,176r472,-336xm414,-518v-7,257,128,395,350,395v138,0,244,-50,315,-153v28,-41,41,-97,41,-168r0,-703v0,-78,-3,-130,-8,-156v-12,-54,-41,-94,-88,-120r312,0r0,109v37,-19,59,-39,67,-61v3,-9,-5,-24,-29,-43v-108,-87,9,-261,142,-198v65,31,97,111,57,193v-39,83,-118,147,-237,190r1,957v0,77,3,129,9,155v12,55,41,95,88,121r-306,0r0,-150v-102,123,-245,185,-428,185v-240,1,-431,-125,-483,-311v-13,-49,-20,-130,-20,-242r0,-629v0,-79,-3,-131,-9,-156v-12,-55,-41,-95,-88,-120r410,0v-88,60,-96,110,-96,276r0,629","w":1540},"\u1eec":{"d":"686,-1990v178,-79,437,43,336,236v-17,33,-144,124,-160,146v-17,23,-10,39,1,78r-127,13v-30,-105,17,-144,81,-194v53,-41,80,-77,80,-109v0,-56,-57,-94,-117,-92v-27,0,-93,23,-197,68xm414,-518v-7,257,128,395,350,395v138,0,244,-50,315,-153v28,-41,41,-97,41,-168r0,-703v0,-78,-3,-130,-8,-156v-12,-54,-41,-94,-88,-120r312,0r0,109v37,-19,59,-39,67,-61v3,-9,-5,-24,-29,-43v-108,-87,9,-261,142,-198v65,31,97,111,57,193v-39,83,-118,147,-237,190r1,957v0,77,3,129,9,155v12,55,41,95,88,121r-306,0r0,-150v-102,123,-245,185,-428,185v-240,1,-431,-125,-483,-311v-13,-49,-20,-130,-20,-242r0,-629v0,-79,-3,-131,-9,-156v-12,-55,-41,-95,-88,-120r410,0v-88,60,-96,110,-96,276r0,629","w":1540},"\u1eee":{"d":"639,-1819v91,0,230,84,360,84v47,0,114,-37,203,-112v-44,118,-72,260,-225,260v-123,0,-339,-139,-455,-62v-13,9,-39,27,-76,58v31,-87,53,-142,66,-162v28,-44,71,-66,127,-66xm414,-518v-7,257,128,395,350,395v138,0,244,-50,315,-153v28,-41,41,-97,41,-168r0,-703v0,-78,-3,-130,-8,-156v-12,-54,-41,-94,-88,-120r312,0r0,109v37,-19,59,-39,67,-61v3,-9,-5,-24,-29,-43v-108,-87,9,-261,142,-198v65,31,97,111,57,193v-39,83,-118,147,-237,190r1,957v0,77,3,129,9,155v12,55,41,95,88,121r-306,0r0,-150v-102,123,-245,185,-428,185v-240,1,-431,-125,-483,-311v-13,-49,-20,-130,-20,-242r0,-629v0,-79,-3,-131,-9,-156v-12,-55,-41,-95,-88,-120r410,0v-88,60,-96,110,-96,276r0,629","w":1540},"\u1ef0":{"d":"789,165v67,0,127,61,127,129v0,69,-60,131,-129,131v-73,0,-132,-59,-132,-131v0,-70,63,-129,134,-129xm414,-518v-7,257,128,395,350,395v138,0,244,-50,315,-153v28,-41,41,-97,41,-168r0,-703v0,-78,-3,-130,-8,-156v-12,-54,-41,-94,-88,-120r312,0r0,109v37,-19,59,-39,67,-61v3,-9,-5,-24,-29,-43v-108,-87,9,-261,142,-198v65,31,97,111,57,193v-39,83,-118,147,-237,190r1,957v0,77,3,129,9,155v12,55,41,95,88,121r-306,0r0,-150v-102,123,-245,185,-428,185v-240,1,-431,-125,-483,-311v-13,-49,-20,-130,-20,-242r0,-629v0,-79,-3,-131,-9,-156v-12,-55,-41,-95,-88,-120r410,0v-88,60,-96,110,-96,276r0,629","w":1540},"\u01a0":{"d":"898,-1460v433,6,758,293,770,739v12,420,-373,756,-799,756v-419,0,-788,-329,-788,-740v0,-430,376,-761,817,-755xm878,-121v324,0,544,-239,544,-567v0,-330,-230,-617,-555,-617v-316,0,-542,242,-542,564v0,316,219,620,553,620xm1653,-1423v-42,87,-125,156,-254,196v-86,27,-74,1,-147,-36v139,-29,215,-67,231,-112v3,-9,-5,-24,-29,-43v-109,-87,10,-261,142,-198v65,31,97,110,57,193","w":1753},"\u1edc":{"d":"1062,-1538r-590,-176r119,-160xm878,-121v324,0,544,-239,544,-567v0,-330,-230,-617,-555,-617v-316,0,-542,242,-542,564v0,316,219,620,553,620xm81,-705v0,-430,376,-755,817,-755v191,0,354,53,489,159v55,-22,86,-47,96,-74v3,-9,-5,-24,-29,-43v-108,-87,9,-261,142,-198v65,31,97,111,57,193v-35,75,-103,134,-203,177v121,113,214,309,218,525v8,420,-373,756,-799,756v-419,0,-788,-329,-788,-740","w":1753},"\u1eda":{"d":"1297,-1714r-589,176r471,-336xm878,-121v324,0,544,-239,544,-567v0,-330,-230,-617,-555,-617v-316,0,-542,242,-542,564v0,316,219,620,553,620xm81,-705v0,-430,376,-755,817,-755v191,0,354,53,489,159v55,-22,86,-47,96,-74v3,-9,-5,-24,-29,-43v-108,-87,9,-261,142,-198v65,31,97,111,57,193v-35,75,-103,134,-203,177v121,113,214,309,218,525v8,420,-373,756,-799,756v-419,0,-788,-329,-788,-740","w":1753},"\u1ede":{"d":"878,-121v324,0,544,-239,544,-567v0,-330,-230,-617,-555,-617v-316,0,-542,242,-542,564v0,316,219,620,553,620xm739,-1990v178,-79,436,43,335,236v-17,33,-143,124,-159,146v-17,23,-10,39,1,78r-127,13v-30,-105,17,-144,81,-194v53,-41,80,-77,80,-109v0,-56,-57,-94,-117,-92v-27,0,-93,23,-197,68xm81,-705v0,-430,376,-755,817,-755v191,0,354,53,489,159v55,-22,86,-47,96,-74v3,-9,-5,-24,-29,-43v-108,-87,9,-261,142,-198v65,31,97,111,57,193v-35,75,-103,134,-203,177v121,113,214,309,218,525v8,420,-373,756,-799,756v-419,0,-788,-329,-788,-740","w":1753},"\u1ee0":{"d":"710,-1819v91,0,230,84,360,84v47,0,114,-37,203,-112v-44,118,-72,260,-225,260v-123,0,-339,-139,-455,-62v-13,9,-39,27,-76,58v31,-87,53,-142,66,-162v28,-44,71,-66,127,-66xm878,-121v324,0,544,-239,544,-567v0,-330,-230,-617,-555,-617v-316,0,-542,242,-542,564v0,316,219,620,553,620xm81,-705v0,-430,376,-755,817,-755v191,0,354,53,489,159v55,-22,86,-47,96,-74v3,-9,-5,-24,-29,-43v-108,-87,9,-261,142,-198v65,31,97,111,57,193v-35,75,-103,134,-203,177v121,113,214,309,218,525v8,420,-373,756,-799,756v-419,0,-788,-329,-788,-740","w":1753},"\u1ee2":{"d":"878,-121v324,0,544,-239,544,-567v0,-330,-230,-617,-555,-617v-316,0,-542,242,-542,564v0,316,219,620,553,620xm878,165v67,0,127,61,127,129v0,69,-60,131,-129,131v-73,0,-132,-59,-132,-131v0,-70,63,-129,134,-129xm81,-705v0,-430,376,-755,817,-755v191,0,354,53,489,159v55,-22,86,-47,96,-74v3,-9,-5,-24,-29,-43v-108,-87,9,-261,142,-198v65,31,97,111,57,193v-35,75,-103,134,-203,177v121,113,214,309,218,525v8,420,-373,756,-799,756v-419,0,-788,-329,-788,-740","w":1753},"\u1ef2":{"d":"768,-254v2,155,22,173,109,254r-418,0v45,-31,76,-72,84,-123v18,-119,5,-353,8,-500r-372,-600v-74,-112,-88,-134,-193,-200r246,-9v33,0,56,4,68,14v12,10,33,40,63,89r325,532r273,-413v62,-90,57,-159,-37,-213r375,0r-531,800r0,369xm867,-1538r-590,-176r119,-160","w":1306},"\u00dd":{"d":"1092,-1714r-590,176r471,-336xm768,-254v2,155,22,173,109,254r-418,0v45,-31,76,-72,84,-123v18,-119,5,-353,8,-500r-372,-600v-74,-112,-88,-134,-193,-200r246,-9v33,0,56,4,68,14v12,10,33,40,63,89r325,532r273,-413v62,-90,57,-159,-37,-213r375,0r-531,800r0,369","w":1306},"\u1ef6":{"d":"768,-254v2,155,22,173,109,254r-418,0v45,-31,76,-72,84,-123v18,-119,5,-353,8,-500r-372,-600v-74,-112,-88,-134,-193,-200r246,-9v33,0,56,4,68,14v12,10,33,40,63,89r325,532r273,-413v62,-90,57,-159,-37,-213r375,0r-531,800r0,369xm586,-1990v178,-79,439,43,336,236v-18,33,-143,124,-160,146v-17,23,-10,38,1,78r-127,13v-27,-106,16,-144,81,-194v54,-41,81,-77,81,-109v1,-56,-58,-94,-117,-92v-28,0,-94,23,-198,68","w":1306},"\u1ef8":{"d":"768,-254v2,155,22,173,109,254r-418,0v45,-31,76,-72,84,-123v18,-119,5,-353,8,-500r-372,-600v-74,-112,-88,-134,-193,-200r246,-9v33,0,56,4,68,14v12,10,33,40,63,89r325,532r273,-413v62,-90,57,-159,-37,-213r375,0r-531,800r0,369xm531,-1819v90,0,231,84,360,84v47,0,114,-37,203,-112v-43,120,-72,260,-225,260v-122,0,-340,-139,-455,-62v-13,8,-39,27,-76,58v32,-87,53,-142,66,-162v28,-44,71,-66,127,-66","w":1306},"\u1ef4":{"d":"768,-254v2,155,22,173,109,254r-418,0v45,-31,76,-72,84,-123v18,-119,5,-353,8,-500r-372,-600v-74,-112,-88,-134,-193,-200r246,-9v33,0,56,4,68,14v12,10,33,40,63,89r325,532r273,-413v62,-90,57,-159,-37,-213r375,0r-531,800r0,369xm671,165v67,0,127,61,127,129v0,69,-60,131,-129,131v-72,0,-131,-60,-131,-131v0,-70,63,-129,133,-129","w":1306},"\u00e0":{"d":"710,-1120r-535,-236r132,-135xm720,-743v-2,-93,-100,-138,-207,-138v-76,0,-174,29,-295,86r144,-217v47,-9,97,-14,149,-14v183,0,305,48,365,145v71,114,20,461,49,648v11,70,79,106,178,106r-94,141v-209,-19,-285,-56,-285,-276r0,-279v-49,23,-141,51,-276,82v-104,25,-156,80,-156,166v1,178,223,208,391,148r-127,161v-38,9,-77,13,-118,13v-212,0,-366,-139,-367,-324v0,-99,40,-172,121,-217v55,-30,150,-58,285,-84v95,-18,160,-38,193,-58v33,-20,50,-50,50,-89","w":1116},"\u00e1":{"d":"970,-1356r-534,236r405,-371xm720,-743v-2,-93,-100,-138,-207,-138v-76,0,-174,29,-295,86r144,-217v47,-9,97,-14,149,-14v183,0,305,48,365,145v71,114,20,461,49,648v11,70,79,106,178,106r-94,141v-209,-19,-285,-56,-285,-276r0,-279v-49,23,-141,51,-276,82v-104,25,-156,80,-156,166v1,178,223,208,391,148r-127,161v-38,9,-77,13,-118,13v-212,0,-366,-139,-367,-324v0,-99,40,-172,121,-217v55,-30,150,-58,285,-84v95,-18,160,-38,193,-58v33,-20,50,-50,50,-89","w":1116},"\u1ea3":{"d":"720,-743v-2,-93,-100,-138,-207,-138v-76,0,-174,29,-295,86r144,-217v47,-9,97,-14,149,-14v183,0,305,48,365,145v71,114,20,461,49,648v11,70,79,106,178,106r-94,141v-209,-19,-285,-56,-285,-276r0,-279v-49,23,-141,51,-276,82v-104,25,-156,80,-156,166v1,178,223,208,391,148r-127,161v-38,9,-77,13,-118,13v-212,0,-366,-139,-367,-324v0,-99,40,-172,121,-217v55,-30,150,-58,285,-84v95,-18,160,-38,193,-58v33,-20,50,-50,50,-89xm449,-1591v178,-79,439,43,336,236v-18,33,-142,124,-159,146v-17,23,-11,38,0,78r-127,13v-27,-106,16,-144,81,-194v54,-41,81,-77,81,-109v1,-56,-58,-94,-117,-92v-28,0,-94,23,-198,68","w":1116},"\u00e3":{"d":"384,-1413v43,0,308,86,322,78v52,0,115,-33,188,-99v-33,161,-97,242,-194,242v-70,0,-293,-88,-334,-80v-43,0,-93,24,-152,72v23,-77,44,-127,62,-152v29,-41,65,-61,108,-61xm720,-743v-2,-93,-100,-138,-207,-138v-76,0,-174,29,-295,86r144,-217v47,-9,97,-14,149,-14v183,0,305,48,365,145v71,114,20,461,49,648v11,70,79,106,178,106r-94,141v-209,-19,-285,-56,-285,-276r0,-279v-49,23,-141,51,-276,82v-104,25,-156,80,-156,166v1,178,223,208,391,148r-127,161v-38,9,-77,13,-118,13v-212,0,-366,-139,-367,-324v0,-99,40,-172,121,-217v55,-30,150,-58,285,-84v95,-18,160,-38,193,-58v33,-20,50,-50,50,-89","w":1116},"\u1ea1":{"d":"720,-743v-2,-93,-100,-138,-207,-138v-76,0,-174,29,-295,86r144,-217v47,-9,97,-14,149,-14v183,0,305,48,365,145v71,114,20,461,49,648v11,70,79,106,178,106r-94,141v-209,-19,-285,-56,-285,-276r0,-279v-49,23,-141,51,-276,82v-104,25,-156,80,-156,166v1,178,223,208,391,148r-127,161v-38,9,-77,13,-118,13v-212,0,-366,-139,-367,-324v0,-99,40,-172,121,-217v55,-30,150,-58,285,-84v95,-18,160,-38,193,-58v33,-20,50,-50,50,-89xm580,165v67,0,127,61,127,129v0,69,-60,131,-129,131v-72,0,-131,-60,-131,-131v0,-70,63,-129,133,-129","w":1116},"\u00e2":{"d":"886,-1133v-95,-8,-204,-58,-326,-149v-116,91,-226,141,-331,149r331,-329xm720,-743v-2,-93,-100,-138,-207,-138v-76,0,-174,29,-295,86r144,-217v47,-9,97,-14,149,-14v183,0,305,48,365,145v71,114,20,461,49,648v11,70,79,106,178,106r-94,141v-209,-19,-285,-56,-285,-276r0,-279v-49,23,-141,51,-276,82v-104,25,-156,80,-156,166v1,178,223,208,391,148r-127,161v-38,9,-77,13,-118,13v-212,0,-366,-139,-367,-324v0,-99,40,-172,121,-217v55,-30,150,-58,285,-84v95,-18,160,-38,193,-58v33,-20,50,-50,50,-89","w":1116},"\u1ea7":{"d":"854,-1374r-535,-236r132,-135xm720,-743v-2,-93,-100,-138,-207,-138v-76,0,-174,29,-295,86r144,-217v47,-9,97,-14,149,-14v183,0,305,48,365,145v71,114,20,461,49,648v11,70,79,106,178,106r-94,141v-209,-19,-285,-56,-285,-276r0,-279v-49,23,-141,51,-276,82v-104,25,-156,80,-156,166v1,178,223,208,391,148r-127,161v-38,9,-77,13,-118,13v-212,0,-366,-139,-367,-324v0,-99,40,-172,121,-217v55,-30,150,-58,285,-84v95,-18,160,-38,193,-58v33,-20,50,-50,50,-89xm886,-1133v-95,-8,-204,-58,-326,-149v-116,91,-226,141,-331,149r331,-329","w":1116},"\u1ea5":{"d":"797,-1610r-534,236r405,-371xm720,-743v-2,-93,-100,-138,-207,-138v-76,0,-174,29,-295,86r144,-217v47,-9,97,-14,149,-14v183,0,305,48,365,145v71,114,20,461,49,648v11,70,79,106,178,106r-94,141v-209,-19,-285,-56,-285,-276r0,-279v-49,23,-141,51,-276,82v-104,25,-156,80,-156,166v1,178,223,208,391,148r-127,161v-38,9,-77,13,-118,13v-212,0,-366,-139,-367,-324v0,-99,40,-172,121,-217v55,-30,150,-58,285,-84v95,-18,160,-38,193,-58v33,-20,50,-50,50,-89xm886,-1133v-95,-8,-204,-58,-326,-149v-116,91,-226,141,-331,149r331,-329","w":1116},"\u1ea9":{"d":"720,-743v-2,-93,-100,-138,-207,-138v-76,0,-174,29,-295,86r144,-217v47,-9,97,-14,149,-14v183,0,305,48,365,145v71,114,20,461,49,648v11,70,79,106,178,106r-94,141v-209,-19,-285,-56,-285,-276r0,-279v-49,23,-141,51,-276,82v-104,25,-156,80,-156,166v1,178,223,208,391,148r-127,161v-38,9,-77,13,-118,13v-212,0,-366,-139,-367,-324v0,-99,40,-172,121,-217v55,-30,150,-58,285,-84v95,-18,160,-38,193,-58v33,-20,50,-50,50,-89xm703,-1799v178,-79,439,43,336,236v-18,33,-142,124,-159,146v-17,23,-11,38,0,78r-127,13v-27,-106,16,-144,81,-194v54,-41,81,-77,81,-109v1,-56,-58,-94,-117,-92v-28,0,-94,23,-198,68xm886,-1133v-95,-8,-204,-58,-326,-149v-116,91,-226,141,-331,149r331,-329","w":1116},"\u1eab":{"d":"492,-1675v43,0,308,86,322,78v52,0,115,-33,188,-99v-33,161,-97,242,-194,242v-70,0,-293,-88,-334,-80v-43,0,-93,24,-152,72v23,-77,44,-127,62,-152v29,-41,65,-61,108,-61xm720,-743v-2,-93,-100,-138,-207,-138v-76,0,-174,29,-295,86r144,-217v47,-9,97,-14,149,-14v183,0,305,48,365,145v71,114,20,461,49,648v11,70,79,106,178,106r-94,141v-209,-19,-285,-56,-285,-276r0,-279v-49,23,-141,51,-276,82v-104,25,-156,80,-156,166v1,178,223,208,391,148r-127,161v-38,9,-77,13,-118,13v-212,0,-366,-139,-367,-324v0,-99,40,-172,121,-217v55,-30,150,-58,285,-84v95,-18,160,-38,193,-58v33,-20,50,-50,50,-89xm886,-1133v-95,-8,-204,-58,-326,-149v-116,91,-226,141,-331,149r331,-329","w":1116},"\u1ead":{"d":"720,-743v-2,-93,-100,-138,-207,-138v-76,0,-174,29,-295,86r144,-217v47,-9,97,-14,149,-14v183,0,305,48,365,145v71,114,20,461,49,648v11,70,79,106,178,106r-94,141v-209,-19,-285,-56,-285,-276r0,-279v-49,23,-141,51,-276,82v-104,25,-156,80,-156,166v1,178,223,208,391,148r-127,161v-38,9,-77,13,-118,13v-212,0,-366,-139,-367,-324v0,-99,40,-172,121,-217v55,-30,150,-58,285,-84v95,-18,160,-38,193,-58v33,-20,50,-50,50,-89xm580,165v67,0,127,61,127,129v0,69,-60,131,-129,131v-72,0,-131,-60,-131,-131v0,-70,63,-129,133,-129xm886,-1133v-95,-8,-204,-58,-326,-149v-116,91,-226,141,-331,149r331,-329","w":1116},"\u0103":{"d":"720,-743v-2,-93,-100,-138,-207,-138v-76,0,-174,29,-295,86r144,-217v47,-9,97,-14,149,-14v183,0,305,48,365,145v71,114,20,461,49,648v11,70,79,106,178,106r-94,141v-209,-19,-285,-56,-285,-276r0,-279v-49,23,-141,51,-276,82v-104,25,-156,80,-156,166v1,178,223,208,391,148r-127,161v-38,9,-77,13,-118,13v-212,0,-366,-139,-367,-324v0,-99,40,-172,121,-217v55,-30,150,-58,285,-84v95,-18,160,-38,193,-58v33,-20,50,-50,50,-89xm570,-1249v134,0,158,-42,213,-140r120,0v-44,168,-144,270,-333,270v-183,0,-284,-94,-324,-270r121,0v46,93,114,140,203,140","w":1116},"\u1eb1":{"d":"709,-1374r-535,-236r132,-135xm720,-743v-2,-93,-100,-138,-207,-138v-76,0,-174,29,-295,86r144,-217v47,-9,97,-14,149,-14v183,0,305,48,365,145v71,114,20,461,49,648v11,70,79,106,178,106r-94,141v-209,-19,-285,-56,-285,-276r0,-279v-49,23,-141,51,-276,82v-104,25,-156,80,-156,166v1,178,223,208,391,148r-127,161v-38,9,-77,13,-118,13v-212,0,-366,-139,-367,-324v0,-99,40,-172,121,-217v55,-30,150,-58,285,-84v95,-18,160,-38,193,-58v33,-20,50,-50,50,-89xm570,-1249v134,0,158,-42,213,-140r120,0v-44,168,-144,270,-333,270v-183,0,-284,-94,-324,-270r121,0v46,93,114,140,203,140","w":1116},"\u1eaf":{"d":"960,-1610r-534,236r405,-371xm720,-743v-2,-93,-100,-138,-207,-138v-76,0,-174,29,-295,86r144,-217v47,-9,97,-14,149,-14v183,0,305,48,365,145v71,114,20,461,49,648v11,70,79,106,178,106r-94,141v-209,-19,-285,-56,-285,-276r0,-279v-49,23,-141,51,-276,82v-104,25,-156,80,-156,166v1,178,223,208,391,148r-127,161v-38,9,-77,13,-118,13v-212,0,-366,-139,-367,-324v0,-99,40,-172,121,-217v55,-30,150,-58,285,-84v95,-18,160,-38,193,-58v33,-20,50,-50,50,-89xm570,-1249v134,0,158,-42,213,-140r120,0v-44,168,-144,270,-333,270v-183,0,-284,-94,-324,-270r121,0v46,93,114,140,203,140","w":1116},"\u1eb3":{"d":"720,-743v-2,-93,-100,-138,-207,-138v-76,0,-174,29,-295,86r144,-217v47,-9,97,-14,149,-14v183,0,305,48,365,145v71,114,20,461,49,648v11,70,79,106,178,106r-94,141v-209,-19,-285,-56,-285,-276r0,-279v-49,23,-141,51,-276,82v-104,25,-156,80,-156,166v1,178,223,208,391,148r-127,161v-38,9,-77,13,-118,13v-212,0,-366,-139,-367,-324v0,-99,40,-172,121,-217v55,-30,150,-58,285,-84v95,-18,160,-38,193,-58v33,-20,50,-50,50,-89xm484,-1835v178,-79,439,43,336,236v-18,33,-143,124,-160,146v-17,23,-10,38,1,78r-127,13v-27,-106,16,-144,81,-194v54,-41,81,-77,81,-109v1,-56,-58,-94,-117,-92v-28,0,-94,23,-198,68xm570,-1249v134,0,158,-42,213,-140r120,0v-44,168,-144,270,-333,270v-183,0,-284,-94,-324,-270r121,0v46,93,114,140,203,140","w":1116},"\u1eb5":{"d":"492,-1675v43,0,308,86,322,78v52,0,115,-33,188,-99v-33,161,-97,242,-194,242v-70,0,-293,-88,-334,-80v-43,0,-93,24,-152,72v23,-77,44,-127,62,-152v29,-41,65,-61,108,-61xm720,-743v-2,-93,-100,-138,-207,-138v-76,0,-174,29,-295,86r144,-217v47,-9,97,-14,149,-14v183,0,305,48,365,145v71,114,20,461,49,648v11,70,79,106,178,106r-94,141v-209,-19,-285,-56,-285,-276r0,-279v-49,23,-141,51,-276,82v-104,25,-156,80,-156,166v1,178,223,208,391,148r-127,161v-38,9,-77,13,-118,13v-212,0,-366,-139,-367,-324v0,-99,40,-172,121,-217v55,-30,150,-58,285,-84v95,-18,160,-38,193,-58v33,-20,50,-50,50,-89xm570,-1249v134,0,158,-42,213,-140r120,0v-44,168,-144,270,-333,270v-183,0,-284,-94,-324,-270r121,0v46,93,114,140,203,140","w":1116},"\u1eb7":{"d":"720,-743v-2,-93,-100,-138,-207,-138v-76,0,-174,29,-295,86r144,-217v47,-9,97,-14,149,-14v183,0,305,48,365,145v71,114,20,461,49,648v11,70,79,106,178,106r-94,141v-209,-19,-285,-56,-285,-276r0,-279v-49,23,-141,51,-276,82v-104,25,-156,80,-156,166v1,178,223,208,391,148r-127,161v-38,9,-77,13,-118,13v-212,0,-366,-139,-367,-324v0,-99,40,-172,121,-217v55,-30,150,-58,285,-84v95,-18,160,-38,193,-58v33,-20,50,-50,50,-89xm580,165v67,0,127,61,127,129v0,69,-60,131,-129,131v-72,0,-131,-60,-131,-131v0,-70,63,-129,133,-129xm570,-1249v134,0,158,-42,213,-140r120,0v-44,168,-144,270,-333,270v-183,0,-284,-94,-324,-270r121,0v46,93,114,140,203,140","w":1116},"\u00e8":{"d":"792,-1120r-534,-236r129,-135xm329,-520v10,247,174,403,433,403v135,0,255,-37,362,-112r-117,206v-89,35,-188,52,-299,52v-337,0,-612,-207,-612,-529v0,-289,218,-526,535,-526v286,0,511,204,493,506r-795,0xm882,-655v-30,-161,-121,-242,-274,-242v-154,0,-249,81,-285,242r559,0","w":1191},"\u00e9":{"d":"980,-1356r-534,236r405,-371xm314,-520v10,247,174,403,433,403v135,0,255,-37,362,-112r-117,206v-89,35,-188,52,-299,52v-337,0,-612,-207,-612,-529v0,-289,218,-526,537,-526v286,0,509,204,491,506r-795,0xm882,-655v-30,-160,-122,-240,-275,-240v-155,0,-250,80,-284,240r559,0","w":1191},"\u1ebb":{"d":"314,-520v10,247,174,403,433,403v135,0,255,-37,362,-112r-117,206v-89,35,-188,52,-299,52v-337,0,-612,-207,-612,-529v0,-289,218,-526,537,-526v286,0,509,204,491,506r-795,0xm882,-655v-30,-160,-122,-240,-275,-240v-155,0,-250,80,-284,240r559,0xm503,-1591v178,-79,436,43,335,236v-17,33,-141,124,-158,146v-17,23,-11,38,0,78r-127,13v-30,-105,17,-144,81,-194v53,-41,80,-77,80,-109v0,-56,-57,-94,-117,-92v-27,0,-93,23,-197,68","w":1191},"\u1ebd":{"d":"314,-520v10,247,174,403,433,403v135,0,255,-37,362,-112r-117,206v-89,35,-188,52,-299,52v-337,0,-612,-207,-612,-529v0,-289,218,-526,537,-526v286,0,509,204,491,506r-795,0xm882,-655v-30,-160,-122,-240,-275,-240v-155,0,-250,80,-284,240r559,0xm502,-1413v43,0,308,86,322,78v51,0,114,-33,188,-99v-33,161,-98,242,-195,242v-69,0,-293,-88,-333,-80v-43,0,-93,24,-152,72v23,-77,44,-127,62,-152v29,-41,65,-61,108,-61","w":1191},"\u1eb9":{"d":"314,-520v10,247,174,403,433,403v135,0,255,-37,362,-112r-117,206v-89,35,-188,52,-299,52v-337,0,-612,-207,-612,-529v0,-289,218,-526,537,-526v286,0,509,204,491,506r-795,0xm882,-655v-30,-160,-122,-240,-275,-240v-155,0,-250,80,-284,240r559,0xm598,165v67,0,127,61,127,129v0,69,-60,131,-129,131v-73,0,-131,-59,-131,-131v0,-70,62,-129,133,-129","w":1191},"\u00ea":{"d":"951,-1133v-95,-8,-204,-58,-325,-149v-116,91,-227,141,-332,149r332,-329xm314,-520v10,247,174,403,433,403v135,0,255,-37,362,-112r-117,206v-89,35,-188,52,-299,52v-337,0,-612,-207,-612,-529v0,-289,218,-526,537,-526v286,0,509,204,491,506r-795,0xm882,-655v-30,-160,-122,-240,-275,-240v-155,0,-250,80,-284,240r559,0","w":1191},"\u1ec1":{"d":"909,-1365r-534,-236r129,-135xm329,-520v10,247,174,403,433,403v135,0,255,-37,362,-112r-117,206v-89,35,-188,52,-299,52v-337,0,-612,-207,-612,-529v0,-289,218,-526,535,-526v286,0,511,204,493,506r-795,0xm882,-655v-30,-161,-121,-242,-274,-242v-154,0,-249,81,-285,242r559,0xm952,-1133v-95,-8,-204,-58,-326,-149v-116,91,-226,141,-331,149r331,-329","w":1191},"\u1ebf":{"d":"880,-1619r-534,236r405,-371xm314,-520v10,247,174,403,433,403v135,0,255,-37,362,-112r-117,206v-89,35,-188,52,-299,52v-337,0,-612,-207,-612,-529v0,-289,218,-526,537,-526v286,0,509,204,491,506r-795,0xm882,-655v-30,-160,-122,-240,-275,-240v-155,0,-250,80,-284,240r559,0xm951,-1133v-95,-8,-204,-58,-325,-149v-116,91,-227,141,-332,149r332,-329","w":1191},"\u1ec3":{"d":"314,-520v10,247,174,403,433,403v135,0,255,-37,362,-112r-117,206v-89,35,-188,52,-299,52v-337,0,-612,-207,-612,-529v0,-289,218,-526,537,-526v286,0,509,204,491,506r-795,0xm882,-655v-30,-160,-122,-240,-275,-240v-155,0,-250,80,-284,240r559,0xm774,-1799v178,-79,437,43,336,236v-17,33,-143,124,-160,146v-17,23,-10,38,1,78r-127,13v-30,-105,17,-144,81,-194v53,-41,80,-77,80,-109v0,-56,-57,-94,-117,-92v-27,0,-93,23,-197,68xm951,-1133v-95,-8,-204,-58,-325,-149v-116,91,-227,141,-332,149r332,-329","w":1191},"\u1ec5":{"d":"314,-520v10,247,174,403,433,403v135,0,255,-37,362,-112r-117,206v-89,35,-188,52,-299,52v-337,0,-612,-207,-612,-529v0,-289,218,-526,537,-526v286,0,509,204,491,506r-795,0xm882,-655v-30,-160,-122,-240,-275,-240v-155,0,-250,80,-284,240r559,0xm556,-1684v43,0,308,86,322,78v51,0,114,-33,188,-99v-33,161,-98,242,-195,242v-69,0,-293,-88,-333,-80v-43,0,-93,24,-152,72v23,-77,44,-127,62,-152v29,-41,65,-61,108,-61xm951,-1133v-95,-8,-204,-58,-325,-149v-116,91,-227,141,-332,149r332,-329","w":1191},"\u1ec7":{"d":"314,-520v10,247,174,403,433,403v135,0,255,-37,362,-112r-117,206v-89,35,-188,52,-299,52v-337,0,-612,-207,-612,-529v0,-289,218,-526,537,-526v286,0,509,204,491,506r-795,0xm882,-655v-30,-160,-122,-240,-275,-240v-155,0,-250,80,-284,240r559,0xm598,165v67,0,127,61,127,129v0,69,-60,131,-129,131v-73,0,-131,-59,-131,-131v0,-70,62,-129,133,-129xm951,-1133v-95,-8,-204,-58,-325,-149v-116,91,-227,141,-332,149r332,-329","w":1191},"\u00ec":{"d":"416,-1120r-510,-223r125,-130xm363,-213v3,146,1,145,82,213r-359,0v81,-68,82,-67,82,-213r0,-571v-3,-147,-1,-145,-82,-213v102,-2,231,15,277,-41r0,825","w":524},"\u00ed":{"d":"621,-1343r-508,223r383,-353xm362,-213v3,145,3,145,82,213r-358,0v79,-68,82,-68,82,-213r0,-571v-3,-146,-2,-145,-82,-213v101,-3,231,15,276,-41r0,825","w":524},"\u1ec9":{"d":"362,-213v3,145,3,145,82,213r-358,0v79,-68,82,-68,82,-213r0,-571v-3,-146,-2,-145,-82,-213v101,-2,232,15,276,-41r0,825xm151,-1591v178,-79,436,43,335,236v-17,33,-143,124,-159,146v-17,23,-10,39,1,78r-127,13v-30,-104,17,-145,80,-194v53,-42,81,-77,81,-109v0,-56,-57,-94,-117,-92v-27,0,-93,23,-197,68","w":524},"\u0129":{"d":"362,-213v3,145,3,145,82,213r-358,0v79,-68,82,-68,82,-213r0,-571v-3,-146,-2,-145,-82,-213v101,-2,232,15,276,-41r0,825xm105,-1386v43,0,309,86,322,78v51,0,114,-33,188,-99v-33,161,-98,242,-195,242v-69,0,-293,-88,-333,-80v-43,0,-93,24,-152,72v23,-77,44,-127,61,-152v29,-41,65,-61,109,-61","w":524},"\u1ecb":{"d":"264,-1397v69,0,131,65,131,133v0,75,-60,136,-135,136v-73,0,-133,-62,-133,-136v0,-72,64,-133,137,-133xm362,-213v3,145,3,145,82,213r-358,0v79,-68,82,-68,82,-213r0,-571v-3,-146,-2,-145,-82,-213v101,-3,231,15,276,-41r0,825xm273,165v67,0,127,61,127,129v0,69,-60,131,-129,131v-73,0,-132,-59,-132,-131v0,-70,63,-129,134,-129","w":524},"\u00f2":{"d":"798,-1120r-535,-236r131,-135xm667,-1026v299,0,542,235,542,520v0,301,-266,535,-575,535v-305,0,-553,-223,-553,-523v0,-307,256,-532,586,-532xm652,-117v201,0,336,-153,336,-358v0,-229,-136,-406,-356,-406v-196,0,-330,158,-330,361v0,217,143,403,350,403","w":1292},"\u00f3":{"d":"1029,-1356r-534,236r405,-371xm667,-1026v299,0,542,235,542,520v0,301,-266,535,-575,535v-305,0,-553,-223,-553,-523v0,-307,256,-532,586,-532xm652,-117v201,0,336,-153,336,-358v0,-229,-136,-406,-356,-406v-196,0,-330,158,-330,361v0,217,143,403,350,403","w":1292},"\u1ecf":{"d":"667,-1026v299,0,542,235,542,520v0,301,-266,535,-575,535v-305,0,-553,-223,-553,-523v0,-307,256,-532,586,-532xm652,-117v201,0,336,-153,336,-358v0,-229,-136,-406,-356,-406v-196,0,-330,158,-330,361v0,217,143,403,350,403xm503,-1591v178,-79,436,43,335,236v-17,33,-141,124,-158,146v-17,23,-11,38,0,78r-127,13v-30,-105,17,-144,81,-194v53,-41,80,-77,80,-109v0,-56,-57,-94,-117,-92v-27,0,-93,23,-197,68","w":1292},"\u00f5":{"d":"489,-1413v43,0,309,86,321,78v52,0,115,-33,189,-99v-33,161,-98,242,-195,242v-69,0,-294,-88,-334,-80v-42,0,-92,24,-151,72v23,-77,43,-127,61,-152v29,-41,65,-61,109,-61xm667,-1026v299,0,542,235,542,520v0,301,-266,535,-575,535v-305,0,-553,-223,-553,-523v0,-307,256,-532,586,-532xm652,-117v201,0,336,-153,336,-358v0,-229,-136,-406,-356,-406v-196,0,-330,158,-330,361v0,217,143,403,350,403","w":1292},"\u1ecd":{"d":"667,-1026v299,0,542,235,542,520v0,301,-266,535,-575,535v-305,0,-553,-223,-553,-523v0,-307,256,-532,586,-532xm652,-117v201,0,336,-153,336,-358v0,-229,-136,-406,-356,-406v-196,0,-330,158,-330,361v0,217,143,403,350,403xm648,165v67,0,127,61,127,129v0,69,-60,131,-129,131v-72,0,-131,-60,-131,-131v0,-70,63,-129,133,-129","w":1292},"\u00f4":{"d":"974,-1133v-95,-8,-204,-58,-326,-149v-116,91,-226,141,-331,149r331,-329xm667,-1026v299,0,542,235,542,520v0,301,-266,535,-575,535v-305,0,-553,-223,-553,-523v0,-307,256,-532,586,-532xm652,-117v201,0,336,-153,336,-358v0,-229,-136,-406,-356,-406v-196,0,-330,158,-330,361v0,217,143,403,350,403","w":1292},"\u1ed3":{"d":"925,-1383r-535,-236r131,-135xm667,-1026v299,0,542,235,542,520v0,301,-266,535,-575,535v-305,0,-553,-223,-553,-523v0,-307,256,-532,586,-532xm652,-117v201,0,336,-153,336,-358v0,-229,-136,-406,-356,-406v-196,0,-330,158,-330,361v0,217,143,403,350,403xm974,-1133v-95,-8,-204,-58,-326,-149v-116,91,-226,141,-331,149r331,-329","w":1292},"\u1ed1":{"d":"920,-1619r-534,236r405,-371xm667,-1026v299,0,542,235,542,520v0,301,-266,535,-575,535v-305,0,-553,-223,-553,-523v0,-307,256,-532,586,-532xm652,-117v201,0,336,-153,336,-358v0,-229,-136,-406,-356,-406v-196,0,-330,158,-330,361v0,217,143,403,350,403xm974,-1133v-95,-8,-204,-58,-326,-149v-116,91,-226,141,-331,149r331,-329","w":1292},"\u1ed5":{"d":"667,-1026v299,0,542,235,542,520v0,301,-266,535,-575,535v-305,0,-553,-223,-553,-523v0,-307,256,-532,586,-532xm652,-117v201,0,336,-153,336,-358v0,-229,-136,-406,-356,-406v-196,0,-330,158,-330,361v0,217,143,403,350,403xm802,-1791v178,-79,437,43,336,236v-17,33,-143,124,-160,146v-17,23,-10,38,1,78r-127,13v-30,-105,17,-144,81,-194v53,-41,80,-77,80,-109v0,-56,-57,-94,-117,-92v-27,0,-93,23,-197,68xm974,-1133v-95,-8,-204,-58,-326,-149v-116,91,-226,141,-331,149r331,-329","w":1292},"\u1ed7":{"d":"562,-1676v43,0,309,86,321,78v52,0,115,-33,189,-99v-33,161,-98,242,-195,242v-69,0,-294,-88,-334,-80v-42,0,-92,24,-151,72v23,-77,43,-127,61,-152v29,-41,65,-61,109,-61xm667,-1026v299,0,542,235,542,520v0,301,-266,535,-575,535v-305,0,-553,-223,-553,-523v0,-307,256,-532,586,-532xm652,-117v201,0,336,-153,336,-358v0,-229,-136,-406,-356,-406v-196,0,-330,158,-330,361v0,217,143,403,350,403xm974,-1133v-95,-8,-204,-58,-326,-149v-116,91,-226,141,-331,149r331,-329","w":1292},"\u1ed9":{"d":"667,-1026v299,0,542,235,542,520v0,301,-266,535,-575,535v-305,0,-553,-223,-553,-523v0,-307,256,-532,586,-532xm652,-117v201,0,336,-153,336,-358v0,-229,-136,-406,-356,-406v-196,0,-330,158,-330,361v0,217,143,403,350,403xm648,165v67,0,127,61,127,129v0,69,-60,131,-129,131v-72,0,-131,-60,-131,-131v0,-70,63,-129,133,-129xm974,-1133v-95,-8,-204,-58,-326,-149v-116,91,-226,141,-331,149r331,-329","w":1292},"\u00f9":{"d":"755,-1120r-535,-236r131,-135xm1044,-213v3,146,1,145,82,213r-269,0r0,-141v-95,112,-139,170,-313,170v-255,0,-385,-141,-385,-426r0,-387v-3,-146,-2,-145,-82,-213v101,-2,232,14,276,-41r0,602v-3,196,74,293,246,297v150,4,250,-107,250,-258r0,-387v-3,-145,0,-148,-82,-213v102,-3,231,15,277,-41r0,825","w":1206},"\u00fa":{"d":"986,-1356r-534,236r405,-371xm1044,-213v3,146,1,145,82,213r-269,0r0,-141v-95,112,-139,170,-313,170v-255,0,-385,-141,-385,-426r0,-387v-3,-146,-2,-145,-82,-213v101,-2,232,14,276,-41r0,602v-3,196,74,293,246,297v150,4,250,-107,250,-258r0,-387v-3,-145,0,-148,-82,-213v102,-3,231,15,277,-41r0,825","w":1206},"\u1ee7":{"d":"1044,-213v3,146,1,145,82,213r-269,0r0,-141v-95,112,-139,170,-313,170v-255,0,-385,-141,-385,-426r0,-387v-3,-146,-2,-145,-82,-213v101,-2,232,14,276,-41r0,602v-3,196,74,293,246,297v150,4,250,-107,250,-258r0,-387v-3,-145,0,-148,-82,-213v102,-3,231,15,277,-41r0,825xm503,-1591v178,-79,439,44,336,236v-18,33,-142,124,-159,146v-17,23,-11,38,0,78r-127,13v-30,-105,17,-144,81,-194v53,-41,80,-77,80,-109v0,-56,-57,-94,-117,-92v-27,0,-93,23,-197,68","w":1206},"\u0169":{"d":"1044,-213v3,146,1,145,82,213r-269,0r0,-141v-95,112,-139,170,-313,170v-255,0,-385,-141,-385,-426r0,-387v-3,-146,-2,-145,-82,-213v101,-2,232,14,276,-41r0,602v-3,196,74,293,246,297v150,4,250,-107,250,-258r0,-387v-3,-145,0,-148,-82,-213v102,-3,231,15,277,-41r0,825xm435,-1413v43,0,309,86,321,78v52,0,115,-33,189,-99v-33,161,-98,242,-195,242v-69,0,-294,-88,-334,-80v-42,0,-92,24,-151,72v23,-77,43,-127,61,-152v29,-41,65,-61,109,-61","w":1206},"\u1ee5":{"d":"1044,-213v3,146,1,145,82,213r-269,0r0,-141v-95,112,-139,170,-313,170v-255,0,-385,-141,-385,-426r0,-387v-3,-146,-2,-145,-82,-213v101,-2,232,14,276,-41r0,602v-3,196,74,293,246,297v150,4,250,-107,250,-258r0,-387v-3,-145,0,-148,-82,-213v102,-3,231,15,277,-41r0,825xm648,165v68,0,127,61,127,129v0,69,-59,131,-129,131v-72,0,-131,-60,-131,-131v0,-70,63,-129,133,-129","w":1206},"\u01b0":{"d":"1044,-213v3,146,1,145,82,213r-269,0r0,-141v-95,112,-139,170,-313,170v-255,0,-385,-141,-385,-426r0,-387v-3,-146,-2,-145,-82,-213v101,-2,232,14,276,-41r0,602v-3,196,74,293,246,297v150,4,250,-107,250,-258r0,-387v-3,-145,0,-148,-82,-213v102,-3,231,15,277,-41r0,825xm1291,-989v-42,87,-125,156,-254,196v-86,27,-74,1,-147,-36v139,-29,215,-67,231,-112v3,-9,-5,-24,-29,-43v-108,-87,10,-261,142,-198v65,31,97,110,57,193","w":1206},"\u1eeb":{"d":"755,-1120r-535,-236r131,-135xm849,-784v-3,-145,-2,-148,-82,-213v101,-3,231,15,276,-41r0,163v44,-19,69,-42,78,-66v3,-9,-5,-24,-29,-43v-108,-87,9,-261,142,-198v65,31,97,111,57,193v-41,86,-123,151,-248,194r0,582v3,145,3,145,82,213r-268,0r0,-141v-95,112,-139,170,-313,170v-255,0,-385,-141,-385,-426r0,-387v-3,-146,-2,-145,-82,-213v101,-2,231,14,276,-41r0,602v-3,196,74,293,246,297v150,4,250,-107,250,-258r0,-387","w":1206},"\u1ee9":{"d":"986,-1356r-534,236r405,-371xm849,-784v-3,-145,-2,-148,-82,-213v101,-3,231,15,276,-41r0,163v44,-19,69,-42,78,-66v3,-9,-5,-24,-29,-43v-108,-87,9,-261,142,-198v65,31,97,111,57,193v-41,86,-123,151,-248,194r0,582v3,145,3,145,82,213r-268,0r0,-141v-95,112,-139,170,-313,170v-255,0,-385,-141,-385,-426r0,-387v-3,-146,-2,-145,-82,-213v101,-2,231,14,276,-41r0,602v-3,196,74,293,246,297v150,4,250,-107,250,-258r0,-387","w":1206},"\u1eed":{"d":"503,-1591v178,-79,436,43,335,236v-17,33,-143,124,-159,146v-17,23,-10,39,1,78r-127,13v-30,-105,17,-144,81,-194v53,-41,80,-77,80,-109v0,-56,-57,-94,-117,-92v-27,0,-93,23,-197,68xm849,-784v-3,-145,-2,-148,-82,-213v101,-3,231,15,276,-41r0,163v44,-19,69,-42,78,-66v3,-9,-5,-24,-29,-43v-108,-87,9,-261,142,-198v65,31,97,111,57,193v-41,86,-123,151,-248,194r0,582v3,145,3,145,82,213r-268,0r0,-141v-95,112,-139,170,-313,170v-255,0,-385,-141,-385,-426r0,-387v-3,-146,-2,-145,-82,-213v101,-2,231,14,276,-41r0,602v-3,196,74,293,246,297v150,4,250,-107,250,-258r0,-387","w":1206},"\u1eef":{"d":"434,-1413v43,0,308,86,322,78v52,0,115,-33,188,-99v-33,161,-97,242,-194,242v-69,0,-294,-88,-334,-80v-42,0,-93,24,-152,72v23,-77,44,-127,62,-152v29,-41,65,-61,108,-61xm849,-784v-3,-145,-2,-148,-82,-213v101,-3,231,15,276,-41r0,163v44,-19,69,-42,78,-66v3,-9,-5,-24,-29,-43v-108,-87,9,-261,142,-198v65,31,97,111,57,193v-41,86,-123,151,-248,194r0,582v3,145,3,145,82,213r-268,0r0,-141v-95,112,-139,170,-313,170v-255,0,-385,-141,-385,-426r0,-387v-3,-146,-2,-145,-82,-213v101,-2,231,14,276,-41r0,602v-3,196,74,293,246,297v150,4,250,-107,250,-258r0,-387","w":1206},"\u1ef1":{"d":"648,165v67,0,127,61,127,129v0,69,-60,131,-129,131v-72,0,-131,-60,-131,-131v0,-70,63,-129,133,-129xm849,-784v-3,-145,-2,-148,-82,-213v101,-3,231,15,276,-41r0,163v44,-19,69,-42,78,-66v3,-9,-5,-24,-29,-43v-108,-87,9,-261,142,-198v65,31,97,111,57,193v-41,86,-123,151,-248,194r0,582v3,145,3,145,82,213r-268,0r0,-141v-95,112,-139,170,-313,170v-255,0,-385,-141,-385,-426r0,-387v-3,-146,-2,-145,-82,-213v101,-2,231,14,276,-41r0,602v-3,196,74,293,246,297v150,4,250,-107,250,-258r0,-387","w":1206},"\u01a1":{"d":"667,-1026v299,0,542,235,542,520v0,301,-266,535,-575,535v-305,0,-553,-223,-553,-523v0,-307,256,-532,586,-532xm652,-117v201,0,336,-153,336,-358v0,-229,-136,-406,-356,-406v-196,0,-330,158,-330,361v0,217,143,403,350,403xm1246,-989v-42,87,-125,156,-254,196v-86,27,-74,1,-147,-36v139,-29,215,-67,231,-112v3,-9,-5,-24,-29,-43v-109,-87,10,-261,142,-198v65,31,97,110,57,193","w":1292},"\u1edd":{"d":"798,-1120r-535,-236r131,-135xm652,-117v201,0,336,-153,336,-358v0,-229,-136,-406,-356,-406v-197,0,-330,158,-330,361v0,217,143,403,350,403xm81,-494v0,-307,256,-532,586,-532v145,0,267,44,366,132v39,-31,67,-49,14,-90v-109,-85,9,-261,142,-198v65,31,97,111,57,193v-29,63,-81,114,-155,154v79,93,118,203,118,329v0,301,-266,535,-575,535v-305,0,-553,-223,-553,-523","w":1292},"\u1edb":{"d":"1029,-1356r-534,236r405,-371xm652,-117v201,0,336,-153,336,-358v0,-229,-136,-406,-356,-406v-197,0,-330,158,-330,361v0,217,143,403,350,403xm81,-494v0,-307,256,-532,586,-532v145,0,267,44,366,132v39,-31,67,-49,14,-90v-109,-85,9,-261,142,-198v65,31,97,111,57,193v-29,63,-81,114,-155,154v79,93,118,203,118,329v0,301,-266,535,-575,535v-305,0,-553,-223,-553,-523","w":1292},"\u1edf":{"d":"652,-117v201,0,336,-153,336,-358v0,-229,-136,-406,-356,-406v-197,0,-330,158,-330,361v0,217,143,403,350,403xm503,-1591v178,-79,436,43,335,236v-17,33,-143,124,-159,146v-17,23,-10,39,1,78r-127,13v-30,-105,17,-144,81,-194v53,-41,80,-77,80,-109v0,-56,-57,-94,-117,-92v-27,0,-93,23,-197,68xm81,-494v0,-307,256,-532,586,-532v145,0,267,44,366,132v39,-31,67,-49,14,-90v-109,-85,9,-261,142,-198v65,31,97,111,57,193v-29,63,-81,114,-155,154v79,93,118,203,118,329v0,301,-266,535,-575,535v-305,0,-553,-223,-553,-523","w":1292},"\u1ee1":{"d":"488,-1413v43,0,308,86,322,78v52,0,115,-33,188,-99v-33,161,-97,242,-194,242v-69,0,-294,-88,-334,-80v-42,0,-93,24,-152,72v23,-77,44,-127,62,-152v29,-41,65,-61,108,-61xm652,-117v201,0,336,-153,336,-358v0,-229,-136,-406,-356,-406v-197,0,-330,158,-330,361v0,217,143,403,350,403xm81,-494v0,-307,256,-532,586,-532v145,0,267,44,366,132v39,-31,67,-49,14,-90v-109,-85,9,-261,142,-198v65,31,97,111,57,193v-29,63,-81,114,-155,154v79,93,118,203,118,329v0,301,-266,535,-575,535v-305,0,-553,-223,-553,-523","w":1292},"\u1ee3":{"d":"652,-117v201,0,336,-153,336,-358v0,-229,-136,-406,-356,-406v-197,0,-330,158,-330,361v0,217,143,403,350,403xm648,165v67,0,127,61,127,129v0,69,-60,131,-129,131v-72,0,-131,-60,-131,-131v0,-70,63,-129,133,-129xm81,-494v0,-307,256,-532,586,-532v145,0,267,44,366,132v39,-31,67,-49,14,-90v-109,-85,9,-261,142,-198v65,31,97,111,57,193v-29,63,-81,114,-155,154v79,93,118,203,118,329v0,301,-266,535,-575,535v-305,0,-553,-223,-553,-523","w":1292},"\u1ef3":{"d":"1139,-997r-461,1099v-87,212,-204,340,-459,340v-73,0,-161,-18,-262,-55r195,-141v41,26,81,39,122,39v111,0,195,-83,254,-248r21,-57v-47,-47,-84,-100,-111,-160r-286,-625v-51,-105,-70,-148,-162,-192v87,-1,194,-16,274,-5v13,2,28,25,45,66r330,743r227,-575v41,-110,58,-166,-30,-229r303,0","w":1148},"\u00fd":{"d":"973,-1356r-535,236r406,-371xm1139,-997r-461,1099v-87,212,-204,340,-459,340v-73,0,-161,-18,-262,-55r195,-141v41,26,81,39,122,39v111,0,195,-83,254,-248r21,-57v-47,-47,-84,-100,-111,-160r-286,-625v-51,-105,-70,-148,-162,-192v87,-1,194,-16,274,-5v13,2,28,25,45,66r330,743r227,-575v41,-110,58,-166,-30,-229r303,0","w":1148},"\u1ef7":{"d":"1139,-997r-461,1099v-87,212,-204,340,-459,340v-73,0,-161,-18,-262,-55r195,-141v41,26,81,39,122,39v111,0,195,-83,254,-248r21,-57v-47,-47,-84,-100,-111,-160r-286,-625v-51,-105,-70,-148,-162,-192v87,-1,194,-16,274,-5v13,2,28,25,45,66r330,743r227,-575v41,-110,58,-166,-30,-229r303,0xm504,-1591v178,-79,437,43,336,236v-17,33,-144,124,-160,146v-17,23,-10,39,1,78r-127,13v-30,-105,17,-144,81,-194v53,-41,80,-77,80,-109v0,-56,-57,-94,-117,-92v-27,0,-93,23,-197,68","w":1148},"\u1ef9":{"d":"1139,-997r-461,1099v-87,212,-204,340,-459,340v-73,0,-161,-18,-262,-55r195,-141v41,26,81,39,122,39v111,0,195,-83,254,-248r21,-57v-47,-47,-84,-100,-111,-160r-286,-625v-51,-105,-70,-148,-162,-192v87,-1,194,-16,274,-5v13,2,28,25,45,66r330,743r227,-575v41,-110,58,-166,-30,-229r303,0xm435,-1413v43,0,308,86,322,78v52,0,115,-33,188,-99v-33,161,-97,242,-194,242v-69,0,-294,-88,-334,-80v-42,0,-93,24,-152,72v23,-77,44,-127,62,-152v29,-41,65,-61,108,-61","w":1148},"\u1ef5":{"d":"1139,-997r-461,1099v-87,212,-204,340,-459,340v-73,0,-161,-18,-262,-55r195,-141v41,26,81,39,122,39v111,0,195,-83,254,-248r21,-57v-47,-47,-84,-100,-111,-160r-286,-625v-51,-105,-70,-148,-162,-192v87,-1,194,-16,274,-5v13,2,28,25,45,66r330,743r227,-575v41,-110,58,-166,-30,-229r303,0xm796,165v67,0,127,61,127,129v0,69,-60,131,-129,131v-72,0,-131,-60,-131,-131v0,-70,63,-129,133,-129","w":1148},"\u00f7":{"w":1720},"\u010c":{"w":1285},"\u010d":{"w":930},"\u0110":{"d":"665,-1423v432,-9,777,285,773,696v-3,307,-188,549,-412,655v-147,70,-619,74,-920,72v52,-53,63,-42,78,-96v39,-135,14,-395,19,-572r-197,0r0,-141r197,0r0,-338v0,-78,-3,-130,-9,-156v-12,-54,-41,-94,-88,-120r559,0xm579,-162v393,0,618,-200,621,-543v3,-342,-223,-575,-582,-575v-57,0,-123,8,-198,25r0,446r413,0r0,141r-413,0r0,490v59,11,112,16,159,16","w":1521},"\u0111":{"d":"927,-1217v-2,-140,-3,-142,-82,-206v101,-2,231,15,276,-41r0,247r179,0r0,127r-179,0r0,877v3,145,3,145,82,213r-276,0r0,-492v1,-152,-4,-193,-62,-274v-58,-82,-143,-119,-245,-119v-189,0,-318,158,-318,353v0,223,157,411,375,411v64,0,127,-20,190,-59r-125,194v-35,10,-71,15,-108,15v-337,5,-553,-223,-553,-525v0,-286,225,-530,506,-530v124,0,237,42,340,127r0,-191r-362,0r0,-127r362,0","w":1277},"\u2018":{"d":"266,-1036v-75,0,-137,-65,-137,-142v0,-71,37,-159,121,-256v38,-44,40,-59,84,-47r47,13v-81,91,-121,151,-121,178v0,11,8,17,25,20v71,11,106,48,106,111v0,66,-59,123,-125,123","w":489},"\u2019":{"d":"227,-1454v75,0,137,65,137,141v0,74,-37,162,-121,256v-39,44,-41,58,-84,47r-49,-12v83,-91,125,-150,125,-176v0,-11,-8,-20,-24,-23v-74,-13,-111,-48,-111,-112v0,-67,59,-121,127,-121","w":489},"\u201c":{"d":"623,-1036v-76,0,-140,-65,-140,-142v0,-75,50,-165,140,-278v30,-38,72,-24,114,-12v-82,89,-123,147,-123,176v0,12,8,19,25,22v72,11,108,48,108,111v0,66,-58,123,-124,123xm266,-1036v-75,0,-137,-65,-137,-142v0,-69,28,-140,84,-211v37,-46,60,-73,69,-81v26,-24,69,-6,99,2v-81,91,-121,151,-121,178v0,11,8,17,25,20v71,11,106,48,106,111v0,66,-59,123,-125,123","w":845},"\u201d":{"d":"581,-1454v76,0,137,65,137,141v0,77,-49,168,-139,279v-30,37,-71,24,-112,12v81,-89,122,-147,122,-176v0,-11,-8,-20,-24,-23v-72,-12,-109,-48,-109,-112v0,-67,57,-121,125,-121xm225,-1454v75,0,137,67,137,143v0,73,-48,164,-139,277v-30,38,-71,23,-113,12v82,-90,123,-149,123,-176v0,-11,-8,-20,-24,-23v-72,-12,-109,-48,-109,-112v0,-67,57,-121,125,-121","w":845},"\u2026":{"d":"1317,-250v69,0,131,65,131,133v0,74,-60,135,-133,135v-76,0,-135,-59,-135,-135v0,-73,63,-133,137,-133xm793,-250v69,0,131,65,131,133v0,74,-60,135,-133,135v-76,0,-136,-59,-136,-135v0,-73,64,-133,138,-133xm266,-250v69,0,131,65,131,133v0,74,-60,135,-133,135v-75,0,-135,-60,-135,-135v0,-72,64,-133,137,-133","w":1576},"\u00a0":{"w":534}}});
